tree
version=v4
num_class=1
num_tree_per_iteration=1
label_index=0
max_feature_idx=394
objective=binary sigmoid:1
feature_names=description_len description_readability_score description_num_links description_num_ai_keywords description_contains_ai_keywords average_comment_len percent_short_comments percent_duplicate_comments comments_emoji_density comments_percent_unique_words comments_generic_praise_ratio embedding_dim_0 embedding_dim_1 embedding_dim_2 embedding_dim_3 embedding_dim_4 embedding_dim_5 embedding_dim_6 embedding_dim_7 embedding_dim_8 embedding_dim_9 embedding_dim_10 embedding_dim_11 embedding_dim_12 embedding_dim_13 embedding_dim_14 embedding_dim_15 embedding_dim_16 embedding_dim_17 embedding_dim_18 embedding_dim_19 embedding_dim_20 embedding_dim_21 embedding_dim_22 embedding_dim_23 embedding_dim_24 embedding_dim_25 embedding_dim_26 embedding_dim_27 embedding_dim_28 embedding_dim_29 embedding_dim_30 embedding_dim_31 embedding_dim_32 embedding_dim_33 embedding_dim_34 embedding_dim_35 embedding_dim_36 embedding_dim_37 embedding_dim_38 embedding_dim_39 embedding_dim_40 embedding_dim_41 embedding_dim_42 embedding_dim_43 embedding_dim_44 embedding_dim_45 embedding_dim_46 embedding_dim_47 embedding_dim_48 embedding_dim_49 embedding_dim_50 embedding_dim_51 embedding_dim_52 embedding_dim_53 embedding_dim_54 embedding_dim_55 embedding_dim_56 embedding_dim_57 embedding_dim_58 embedding_dim_59 embedding_dim_60 embedding_dim_61 embedding_dim_62 embedding_dim_63 embedding_dim_64 embedding_dim_65 embedding_dim_66 embedding_dim_67 embedding_dim_68 embedding_dim_69 embedding_dim_70 embedding_dim_71 embedding_dim_72 embedding_dim_73 embedding_dim_74 embedding_dim_75 embedding_dim_76 embedding_dim_77 embedding_dim_78 embedding_dim_79 embedding_dim_80 embedding_dim_81 embedding_dim_82 embedding_dim_83 embedding_dim_84 embedding_dim_85 embedding_dim_86 embedding_dim_87 embedding_dim_88 embedding_dim_89 embedding_dim_90 embedding_dim_91 embedding_dim_92 embedding_dim_93 embedding_dim_94 embedding_dim_95 embedding_dim_96 embedding_dim_97 embedding_dim_98 embedding_dim_99 embedding_dim_100 embedding_dim_101 embedding_dim_102 embedding_dim_103 embedding_dim_104 embedding_dim_105 embedding_dim_106 embedding_dim_107 embedding_dim_108 embedding_dim_109 embedding_dim_110 embedding_dim_111 embedding_dim_112 embedding_dim_113 embedding_dim_114 embedding_dim_115 embedding_dim_116 embedding_dim_117 embedding_dim_118 embedding_dim_119 embedding_dim_120 embedding_dim_121 embedding_dim_122 embedding_dim_123 embedding_dim_124 embedding_dim_125 embedding_dim_126 embedding_dim_127 embedding_dim_128 embedding_dim_129 embedding_dim_130 embedding_dim_131 embedding_dim_132 embedding_dim_133 embedding_dim_134 embedding_dim_135 embedding_dim_136 embedding_dim_137 embedding_dim_138 embedding_dim_139 embedding_dim_140 embedding_dim_141 embedding_dim_142 embedding_dim_143 embedding_dim_144 embedding_dim_145 embedding_dim_146 embedding_dim_147 embedding_dim_148 embedding_dim_149 embedding_dim_150 embedding_dim_151 embedding_dim_152 embedding_dim_153 embedding_dim_154 embedding_dim_155 embedding_dim_156 embedding_dim_157 embedding_dim_158 embedding_dim_159 embedding_dim_160 embedding_dim_161 embedding_dim_162 embedding_dim_163 embedding_dim_164 embedding_dim_165 embedding_dim_166 embedding_dim_167 embedding_dim_168 embedding_dim_169 embedding_dim_170 embedding_dim_171 embedding_dim_172 embedding_dim_173 embedding_dim_174 embedding_dim_175 embedding_dim_176 embedding_dim_177 embedding_dim_178 embedding_dim_179 embedding_dim_180 embedding_dim_181 embedding_dim_182 embedding_dim_183 embedding_dim_184 embedding_dim_185 embedding_dim_186 embedding_dim_187 embedding_dim_188 embedding_dim_189 embedding_dim_190 embedding_dim_191 embedding_dim_192 embedding_dim_193 embedding_dim_194 embedding_dim_195 embedding_dim_196 embedding_dim_197 embedding_dim_198 embedding_dim_199 embedding_dim_200 embedding_dim_201 embedding_dim_202 embedding_dim_203 embedding_dim_204 embedding_dim_205 embedding_dim_206 embedding_dim_207 embedding_dim_208 embedding_dim_209 embedding_dim_210 embedding_dim_211 embedding_dim_212 embedding_dim_213 embedding_dim_214 embedding_dim_215 embedding_dim_216 embedding_dim_217 embedding_dim_218 embedding_dim_219 embedding_dim_220 embedding_dim_221 embedding_dim_222 embedding_dim_223 embedding_dim_224 embedding_dim_225 embedding_dim_226 embedding_dim_227 embedding_dim_228 embedding_dim_229 embedding_dim_230 embedding_dim_231 embedding_dim_232 embedding_dim_233 embedding_dim_234 embedding_dim_235 embedding_dim_236 embedding_dim_237 embedding_dim_238 embedding_dim_239 embedding_dim_240 embedding_dim_241 embedding_dim_242 embedding_dim_243 embedding_dim_244 embedding_dim_245 embedding_dim_246 embedding_dim_247 embedding_dim_248 embedding_dim_249 embedding_dim_250 embedding_dim_251 embedding_dim_252 embedding_dim_253 embedding_dim_254 embedding_dim_255 embedding_dim_256 embedding_dim_257 embedding_dim_258 embedding_dim_259 embedding_dim_260 embedding_dim_261 embedding_dim_262 embedding_dim_263 embedding_dim_264 embedding_dim_265 embedding_dim_266 embedding_dim_267 embedding_dim_268 embedding_dim_269 embedding_dim_270 embedding_dim_271 embedding_dim_272 embedding_dim_273 embedding_dim_274 embedding_dim_275 embedding_dim_276 embedding_dim_277 embedding_dim_278 embedding_dim_279 embedding_dim_280 embedding_dim_281 embedding_dim_282 embedding_dim_283 embedding_dim_284 embedding_dim_285 embedding_dim_286 embedding_dim_287 embedding_dim_288 embedding_dim_289 embedding_dim_290 embedding_dim_291 embedding_dim_292 embedding_dim_293 embedding_dim_294 embedding_dim_295 embedding_dim_296 embedding_dim_297 embedding_dim_298 embedding_dim_299 embedding_dim_300 embedding_dim_301 embedding_dim_302 embedding_dim_303 embedding_dim_304 embedding_dim_305 embedding_dim_306 embedding_dim_307 embedding_dim_308 embedding_dim_309 embedding_dim_310 embedding_dim_311 embedding_dim_312 embedding_dim_313 embedding_dim_314 embedding_dim_315 embedding_dim_316 embedding_dim_317 embedding_dim_318 embedding_dim_319 embedding_dim_320 embedding_dim_321 embedding_dim_322 embedding_dim_323 embedding_dim_324 embedding_dim_325 embedding_dim_326 embedding_dim_327 embedding_dim_328 embedding_dim_329 embedding_dim_330 embedding_dim_331 embedding_dim_332 embedding_dim_333 embedding_dim_334 embedding_dim_335 embedding_dim_336 embedding_dim_337 embedding_dim_338 embedding_dim_339 embedding_dim_340 embedding_dim_341 embedding_dim_342 embedding_dim_343 embedding_dim_344 embedding_dim_345 embedding_dim_346 embedding_dim_347 embedding_dim_348 embedding_dim_349 embedding_dim_350 embedding_dim_351 embedding_dim_352 embedding_dim_353 embedding_dim_354 embedding_dim_355 embedding_dim_356 embedding_dim_357 embedding_dim_358 embedding_dim_359 embedding_dim_360 embedding_dim_361 embedding_dim_362 embedding_dim_363 embedding_dim_364 embedding_dim_365 embedding_dim_366 embedding_dim_367 embedding_dim_368 embedding_dim_369 embedding_dim_370 embedding_dim_371 embedding_dim_372 embedding_dim_373 embedding_dim_374 embedding_dim_375 embedding_dim_376 embedding_dim_377 embedding_dim_378 embedding_dim_379 embedding_dim_380 embedding_dim_381 embedding_dim_382 embedding_dim_383
feature_infos=[0:4997] [-197.97472118959104:119.19000000000004] [0:60] [0:4] [0:1] [15:307] [0:1] [0:0.32777777777777778] [0:2.834080717488789] [0.21310661536552061:0.98830409356725157] [0:0.17999999999999999] [-1.2750786542892456:1.1852086782455444] [-1.3187447786331177:1.1082820892333984] [-0.94768583774566639:1.417969822883606] [-1.24004065990448:1.2996664047241211] [-1.308626651763916:1.1119155883789062] [-1.1307399272918699:1.1390913724899292] [-1.1137220859527588:1.5234397649765017] [-1.4610624313354492:1.1439977884292605] [-1.2242915630340576:1.1327962875366211] [-1.1074588298797607:1.0699816942214966] [-1.0014415979385376:1.0115747451782229] [-1.4545435905456543:1.2876088619232178] [-1.1498512029647827:0.94590908288955677] [-1.1486303806304932:1.0643619298934937] [-0.9592633843421936:1.1290808916091919] [-1.0142898559570312:1.1033550500869751] [-1.3099585771560669:1.3144630193710327] [-0.90370064973831177:1.1119149923324585] [-1.1720482110977173:0.96203041076660156] [-1.0929161310195925:1.0798087120056152] [-1.4678139686584473:1.2984063625335691] [-1.136909008026123:1.1481356620788574] [-1.1359105110168457:1.2370064258575439] [-1.1886429786682129:1.1108001470565796] [-1.3577015399932859:1.3103485107421875] [-1.0573232173919678:1.0570482015609739] [-1.0131374597549438:1.184147834777832] [-1.0253579616546631:0.98150342702865601] [-1.1207127571105957:1.1431316137313845] [-1.5490437746047974:0.43180307745933533] [-0.87209755182266235:1.0313674211502075] [-1.0969443321228027:1.2834255695343018] [-1.376257061958313:1.2837982177734375] [-1.0434114933013916:0.96283483505249023] [-1.2628822326660156:1.165888786315918] [-1.228198766708374:1.3753767013549805] [-1.1700838804244995:0.96364295482635498] [-1.0038492679595947:1.0056428909301758] [-1.1778105497360229:1.0657492876052856] [-0.9940916895866394:1.1646077632904053] [-1.0209500789642334:0.9512144923210144] [-1.1609845161437988:1.2945488691329956] [-1.0950406789779663:1.1578532457351685] [-1.1713889837265017:1.0097697973251345] [-1.2087550163269043:1.0455182790756226] [-1.1371698379516602:1.0118193626403809] [-1.0301327705383301:1.2156627178192141] [-0.91611009836196899:1.0352847576141355] [-1.197080135345459:0.9781029224395752] [-1.1238819360733032:1.0493463277816772] [-1.2411061525344849:1.4586122035980225] [-1.1335574388504028:0.84297305345535278] [-1.1865559816360474:1.2396748065948486] [-1.2795003652572632:1.3705000877380371] [-1.0942485332489014:1.243137001991272] [-1.1584417819976809:1.2209842205047607] [-1.1150119304656982:1.1329402923583984] [-1.1158121824264526:1.3950235843658447] [-1.2020683288574221:1.0817859172821045] [-0.96864646673202515:1.0169262886047363] [-1.3045732975006104:1.1969113349914551] [-1.0462183952331543:1.2281280755996704] [-1.2785017490386963:0.80553936958312988] [-0.93813514709472656:1.6639176607131958] [-1.0446979999542236:1.5488227605819702] [-1.241447925567627:1.1784349679946899] [-1.1900416612625122:1.1839675903320312] [-1.3765805959701538:1.4325183629989624] [-1.5319970846176147:1.1620538234710691] [-1.2212870121002195:1.3077521324157717] [-1.1090676784515381:1.0852888822555542] [-1.3829360008239746:1.173471212387085] [-1.0946196317672729:1.0759556293487549] [-1.1642485857009888:1.1852841377258301] [-1.2590451240539551:1.2189860343933103] [-1.1826494932174685:1.2642854452133181] [-1.0401935577392578:1.0253399610519409] [-1.2374273538589478:1.1272205114364624] [-1.1351442337036133:1.1938691139221191] [-1.2572394609451294:0.95597839355468761] [-1.1449015140533447:1.2789196968078611] [-1.0744973421096802:1.2745398283004761] [-1.0278058052062988:0.90316700935363758] [-1.1531326770782471:1.4224342107772827] [-1.1277421712875366:1.1736084222793579] [-1.1183593273162842:1.02445387840271] [-0.98758232593536377:1.1044489145278931] [-1.0453081130981443:1.3085689544677734] [-1.1174024343490601:1.1417264938354492] [-0.90806406736373901:1.1022264957427981] [-1.1083574295043943:1.0343549251556396] [-1.1854536533355713:1.3369876146316528] [-1.162523627281189:1.3869055509567261] [-0.98666739463806163:1.1392362117767334] [-1.2617710828781128:1.2055436372756958] [-1.1905888319015503:1.1026829481124878] [-1.1691595315933228:1.0497379302978516] [-1.5036435127258301:1.359538197517395] [-1.2614389657974243:1.1862249374389648] [-0.51725947856903076:3.2432360649108887] [-1.1989960670471191:1.0543593168258667] [-1.0048913955688477:1.2824137210845947] [-1.1810487508773804:1.6782642602920532] [-1.0947582721710205:1.1506646871566772] [-1.0417405366897583:1.3324655294418335] [-1.0600457191467283:0.9864828586578368] [-1.4485973119735718:0.99799048900604237] [-1.1801639795303345:1.4423642158508301] [-1.0481666326522827:1.0749639272689819] [-1.143767237663269:1.0397821664810181] [-1.1850370168685913:1.1207467317581177] [-1.034529447555542:1.0364583730697632] [-1.3250863552093506:1.2623170614242554] [-1.297062873840332:1.1489471197128296] [-1.1160739660263062:1.1535221338272097] [-1.2442954778671265:1.5839512348175049] [-1.4433110952377319:1.2056761980056765] [-1.1195832490921021:1.0693017244338989] [-1.3018872737884519:1.0342475175857544] [-1.2755043506622314:1.2330926656723022] [-1.0503093004226685:1.4224603176116943] [-1.1575007438659668:1.1253612041473389] [-1.3890746831893921:1.1785560846328735] [-1.3329747915267944:1.4977149963378906] [-1.1248031854629517:1.3512730598449707] [-1.4316403865814209:0.57524591684341431] [-1.1048432588577271:1.2667505741119385] [-0.89784753322601318:0.59812849760055542] [-1.0241578817367554:1.1540548801422119] [-1.1684296131134031:1.2738078832626345] [-0.94951283931732178:1.0307401418685913] [-1.1919047832489014:1.0647819042205811] [-1.2304353713989258:1.122053861618042] [-1.3378241062164309:1.1685909032821655] [-1.0862535238265991:0.94259667396545399] [-1.2170991897583008:1.2479490041732788] [-1.2118558883666992:1.1480624675750732] [-1.4099172353744509:1.3728601932525637] [-1.0346187353134155:1.1375918388366699] [-1.3573704957962036:1.3315657377243042] [-1.3884977102279663:1.157776951789856] [-1.3692096471786499:1.3641538619995115] [-1.2867004871368408:1.6741368770599363] [-1.0888465642929075:1.0897171497344971] [-1.2516433000564575:1.2166253328323364] [-1.2214697599411011:1.061510443687439] [-1.4545272588729858:1.0358097553253174] [-0.86909699440002441:0.94593429565429676] [-1.2685064077377319:1.0448681116104126] [-1.3980406522750854:1.030362606048584] [-1.1097708940505979:0.99474692344665516] [-1.0158370733261108:1.2644490003585815] [-1.3031493425369265:1.2865777015686035] [-1.3337274789810181:1.2110350131988523] [-1.3079912662506104:1.3338884115219116] [-1.3527811765670776:1.2007970809936523] [-1.142223596572876:1.3993587493896484] [-0.67280220985412598:0.67054909467697144] [-1.02753746509552:1.0886756181716919] [-1.0725260972976685:0.97533077001571655] [-1.0999804735183716:1.2471370697021484] [-1.1300755739212036:1.2123810052871704] [-0.92531263828277599:1.0528215169906616] [-1.127621054649353:1.0835543870925903] [-1.1485742330551147:1.1269928216934204] [-1.2754292488098145:0.94786679744720459] [-1.1574684381484983:1.419791579246521] [-1.0421913862228394:1.0824244022369385] [-1.148655891418457:1.1214578151702881] [-1.1101429462432859:1.213293194770813] [-1.3017095327377319:1.1520429849624634] [-0.79205918312072754:1.2637643814086914] [-1.2271173000335691:1.5901137590408323] [-1.1628029346466064:1.0955007076263428] [-1.1085501909255979:1.3623050451278689] [-1.1538243293762207:1.0790536403656006] [-1.1123148202896118:1.1241569519042969] [-1.0809359550476074:1.1088912487030029] [-1.3483774662017822:1.2481746673583984] [-1.1155457496643066:1.1425377130508425] [-1.3235169649124146:1.3135248422622681] [-1.5949474573135376:1.0104748010635376] [-1.289791464805603:1.3257439136505127] [-1.1045446395874023:0.92717659473419201] [-1.0574162006378174:1.2136284112930298] [-1.0743414163589478:1.0925498008728027] [-1.2621308565139771:1.0496203899383545] [-1.1506346464157104:1.0280967950820925] [-1.0395941734313965:1.0539190769195557] [-1.1856540441513062:1.1145960092544556] [-1.1420202255249023:1.3758684396743774] [-1.4002768993377686:1.1964569091796875] [-1.3927998542785645:1.3375651836395264] [-1.2061967849731443:1.2413942813873291] [-1.0435577630996704:1.03070068359375] [-1.0282086133956909:0.99577540159225464] [-1.0396639108657837:1.124947190284729] [-1.1849896907806396:1.2330443859100342] [-1.4375728368759155:1.0595687627792358] [-0.89640349149703979:1.1628167629241943] [-1.3216372728347778:1.3072187900543213] [-1.1393136978149414:1.2748332023620603] [-1.1498492956161499:1.3434995412826538] [-1.0427770614624023:1.1270558834075928] [-1.3069177865982056:1.6459968090057373] [-1.2588030099868774:0.95999038219451904] [-1.0850813388824463:1.3703656196594238] [-1.1479232311248779:1.2857422828674316] [-1.3842302560806274:1.1413075923919678] [-0.98841255903244019:1.2520016431808472] [-1.1857926845550537:1.199920654296875] [-1.2716989517211914:1.1872597932815552] [-1.1487230062484739:1.0636991262435913] [-1.0272597074508667:1.0643436908721924] [-1.2755496501922607:1.3758237361907959] [-1.0945756435394287:1.1068799495697019] [-1.1702934503555298:1.2821862697601318] [-0.95192992687225342:1.4118444919586182] [-1.4388329982757568:1.1878927946090698] [-0.9926208257675172:0.90615040063858043] [-1.2226922512054443:1.7553619146347046] [-1.1844794750213623:1.3722872734069824] [-1.356842041015625:1.3405165672302246] [-1.0088284015655518:0.54324281215667725] [-1.113208532333374:1.1228723526000977] [-1.1641530990600586:1.0985461473464966] [-1.1154388189315796:1.1349917650222778] [-1.1731812953948977:1.3245245218276978] [-1.0029401779174805:1.2500474452972412] [-1.0755102634429932:1.0817914009094238] [-1.2053838968276978:1.3836460113525391] [-1.3973861932754517:1.3540387153625488] [-1.1769208908081057:1.4501765966415403] [-1.1422382593154907:1.1359902620315552] [-1.629746675491333:1.4572923183441162] [-1.0543373823165894:1.147863507270813] [-1.1585499048233032:1.4782537221908569] [-1.2537992000579834:0.981903076171875] [-1.1076065301895142:1.4139105081558228] [-1.2332143783569336:1.1660367250442505] [-1.3839651346206665:1.4520963430404663] [-1.1515225172042849:1.0634839534759519] [-1.1263500452041626:1.0958899259567261] [-1.3201497793197632:1.1503616571426392] [-1.1100022792816162:1.2119041681289673] [-1.6810353994369509:1.378929615020752] [-1.41045081615448:1.5976481437683103] [-1.1943796873092651:1.0871939659118652] [-1.0205446481704712:1.2171739339828491] [-0.72785985469818115:1.742661714553833] [-1.1702276468276978:1.3588566780090332] [-1.1734052896499634:1.439669132232666] [-1.2063512802124023:1.1969720125198364] [-1.4744834899902344:1.1593788862228394] [-1.2123287916183472:1.1865650415420532] [-1.1228734254837036:1.0890768766403198] [-1.2074978351593018:1.1747466325759888] [-1.2864648103713989:1.1482334136962891] [-1.1121839284896851:1.0046898126602173] [-1.1705558300018311:1.5354106426239014] [-1.117469310760498:1.267943263053894] [-1.2613136768341064:1.2932436466217041] [-1.5318505764007568:1.0343577861785889] [-1.6293575763702393:1.2426556348800659] [-1.1256176233291626:1.1571260690689087] [-1.164715051651001:1.0617654323577881] [-1.3735864162445068:1.0358223915100098] [-0.60423457622528076:1.12578284740448] [-1.2427084445953369:1.2878649234771729] [-1.2671347856521606:1.0140053033828735] [-1.6737767457962036:1.192335844039917] [-1.1820253133773804:1.494182825088501] [-1.1192467212677002:1.2472299337387085] [-1.3890305757522583:1.0515798330307009] [-1.5046346187591553:1.1252025365829468] [-1.1899433135986328:1.056195855140686] [-1.1955560445785522:1.2756433486938477] [-1.3417613506317141:1.1702295541763306] [-0.96978694200515758:1.1389620304107666] [-1.3566658496856689:1.2769205570220947] [-1.624369740486145:1.0493733882904053] [-1.1815280914306641:1.1752786636352539] [-1.309874415397644:1.5993458032608032] [-1.1281040906906128:0.92867493629455555] [-1.2192860841751101:1.1735872030258181] [-1.3285969495773315:1.1142838001251221] [-1.159787654876709:1.1211389303207395] [-1.3448386192321775:1.1122459173202517] [-1.1361390352249146:1.1841857433319092] [-1.1860979795455933:1.1079627275466919] [-0.97960847616195679:1.1592053174972534] [-1.2936685085296631:1.277263879776001] [-1.4131859540939331:1.4345104694366455] [-1.4485706090927124:1.1965429782867432] [-1.2770308256149292:1.3111860752105713] [-1.3294963836669922:1.3819760084152222] [-1.3113465309143066:1.231122612953186] [-1.2559248208999634:1.725459098815918] [-1.2687528133392334:1.1474906206130979] [-1.1307928562164309:1.3002855777740481] [-1.209355354309082:1.4474605321884155] [-1.2246910333633425:1.2384052276611328] [-1.218925952911377:1.2027428150177002] [-1.1452087163925171:1.2224082946777344] [-1.2298672199249268:1.3160284757614136] [-1.5616946220397949:1.0342381000518801] [-1.235639214515686:0.88519531488418579] [-1.3510183095932009:1.286742091178894] [-1.0952541828155518:1.2307426929473877] [-1.2114535570144651:1.4005888700485229] [-1.3566609621047974:1.4017250537872314] [-1.4471250772476196:1.1227473020553589] [-1.1638869047164917:0.96239560842514038] [-0.96007490158081044:1.054594874382019] [-0.96734458208084118:1.2875275611877439] [-1.1306184530258181:1.2355458736419678] [-1.3075357675552368:1.2602872848510742] [-1.1821151971817017:1.2691925764083862] [-1.2092788219451904:1.211037278175354] [-0.91238003969192505:0.72152286767959595] [-1.1814179420471191:1.002348780632019] [-1.1516375541687012:1.2290992736816406] [-1.2589173316955566:1.1565591096878052] [-1.1026188135147097:1.1535660028457642] [-1.0958849191665649:1.1935795545578003] [-1.0893888473510742:1.2859383821487429] [-1.2469937801361084:1.1813479661941528] [-1.2633353471755979:1.5186548233032229] [-0.95137834548950195:1.2443009614944458] [-1.2960480451583862:1.2161113023757937] [-1.3516240119934082:1.1513378620147705] [-1.1338416337966919:1.0334627628326416] [-1.1794250011444092:1.3210952281951904] [-1.1893148422241211:1.2660857439041138] [-1.0491840839385986:1.1737676858901978] [-1.0744580030441284:1.0807585716247561] [-1.3114558458328247:0.93855172395706177] [-1.4195594787597656:1.1778669357299805] [-0.77733558416366577:1.0364116430282593] [-1.231083869934082:0.87863653898239136] [-1.2083231210708618:1.0565966367721558] [-0.73053723573684692:0.961822509765625] [-0.93852156400680542:1.3448866605758667] [-1.613101601600647:0.92134958505630482] [-1.1942721605300903:1.168290376663208] [-0.97778671979904164:1.137438178062439] [-1.1770867109298706:1.2334721088409424] [-1.0120439529418943:1.1012959480285645] [-1.2777849435806274:0.9653136134147644] [-1.3409035205841064:1.2124259471893311] [-1.2519444227218628:1.0543335676193235] [-1.2798049449920654:1.2824269533157349] [-1.1362683773040771:1.1871892213821411] [-1.3431053161621094:1.0821970701217651] [-1.3686411380767822:1.3804913759231567] [-1.1979598999023438:1.0612536668777466] [-1.2749278545379641:1.1397240161895752] [-1.0675103664398191:1.1694076061248779] [-1.0964090824127195:1.1436411142349243] [-1.265381932258606:1.2265404462814331] [-0.92339819669723522:1.3172982931137085] [-1.1576123237609863:1.1931959390640261] [-1.0655072927474976:1.2920441627502439] [-1.1422120332717896:1.2162824869155884] [-1.6125935316085815:1.2322131395339966] [-1.3341560363769531:0.98035925626754761] [-1.1677893400192261:1.4318305253982544] [-1.1024528741836548:1.052716851234436] [-1.0995603799819946:1.1600797176361084] [-1.074390172958374:0.97215431928634644] [-1.2962812185287476:1.0847370624542236] [-1.2056155204772949:1.0692834854125977] [-1.0767507553100586:1.1826797723770142] [-1.0109511613845823:1.2283802032470703] [-0.99713414907455444:1.4281909465789795] [-1.0322521924972534:1.2056914567947388] [-1.4829515218734739:1.2160993814468384] [-1.1077767610549929:1.2234569787979126] [-1.4023159742355349:1.0184253454208374] [-1.1042411327362061:1.1623157262802124] [-0.99752712249755859:1.6105830669403076] [-1.1583914756774902:1.1926164627075195] [-1.3525335788726809:1.5631000995635986] [-1.2344851493835449:1.3146287202835083]
tree_sizes=3457 3457 3471 3467 3471 3468 3477 3468 3475 3479 3490 3472 3480 3483 3472 3495 3483 3483 3461 3480 3499 3478 3479 3488 3468 3496 3491 3493 3491 3489 3484 3476 3512 3493 3481 3525 3537 3482 3504 3495 3476 3495 3474 3481 3485 3514 3480 3481 3493 3504 3479 3494 3500 3490 3504 3498 3472 3481 3486 3511 3481 3462 3498 3459 3514 3521 3504 3464 3481 3473 3497 3485 3495 3474 3446 3477 3495 3463 3489 3489 3510 3489 3490 3495 3474 3491 3478 3501 3477 3493 3464 3496 3490 3480 3500 3474 3485 3473 3476 3485

Tree=0
num_leaves=31
num_cat=0
split_feature=2 3 9 8 2 9 8 3 5 2 5 0 1 8 5 8 9 2 0 9 1 1 0 0 0 1 7 8 2 1
split_gain=30442.3 22572.2 7019.85 7787.78 7008.22 6021.27 5672.14 5452.02 5322.69 5008.91 3772.02 2896.78 3810.61 2663.79 2646.22 2547.69 2741.2 2258.78 1978.03 1588.84 1800.79 2363.96 1678.29 1733.95 1605.46 1549.86 1341.66 2517.95 1322.91 2228.13
threshold=4.5000000000000009 1.0000000180025095e-35 0.47474573256922792 0.017137704495684605 10.500000000000002 0.50646624282403441 0.012556612293959752 1.0000000180025095e-35 67.500000000000014 6.5000000000000009 97.500000000000014 574.50000000000011 -25.6763809182209 0.16495602382634952 39.500000000000007 0.10475283944243675 0.41251568651934373 2.5000000000000004 2317.0000000000005 0.5473260293496941 -2.7187473488864948 25.058590100074355 491.00000000000006 2091.5000000000005 654.00000000000011 47.065015126512669 0.034408761284593706 0.090636112787449818 1.5000000000000002 45.066438942362574
decision_type=2 2 2 2 2 2 2 2 2 2 2 2 2 2 2 2 2 2 2 2 2 2 2 2 2 2 2 2 2 2
left_child=2 5 3 18 6 10 -3 11 9 -7 13 12 -5 -2 -6 16 -12 -13 -1 20 -4 -22 -23 -24 28 -19 -11 -28 29 -21
right_child=1 4 19 7 14 8 -8 -9 -10 26 15 17 -14 -15 -16 -17 -18 25 -20 24 21 22 23 -25 -26 -27 27 -29 -30 -31
leaf_value=-0.49974184430908064 -0.14204123830509308 -0.51094220131200485 -0.51228069573751189 -0.5036776648072796 -0.15493110337158988 -0.4368041154717433 -0.18475734656344431 -0.16598573221595431 -0.43980690241531228 -0.153783363438486 -0.18165517731008321 -0.47477520755128583 -0.15176059973471093 -0.43007572150560563 -0.48464283581101331 -0.52721077831573038 -0.37618673422360649 -0.20266120972359841 -0.22507233396112905 -0.22919945935019856 -0.30309674817390342 -0.29106878068301556 -0.48763879164181145 -0.36003393381701521 -0.50296520483663554 -0.46564588364754866 -0.52721077831573038 -0.15562338035997197 -0.48458710702555269 -0.48118217894455295
leaf_weight=3236.3834223747253 9325.7636804580688 743.76513433456421 2002.6681523323059 420.68382883071899 253.57280874252319 1029.7913875579834 1882.2997798919678 2227.42036485672 1961.0114922523499 2766.5350470542908 2263.0222778320312 2019.6214442253113 1145.5581521987915 332.52671098709106 6079.6926627159119 350.93314218521118 1065.3933005332947 665.53780174255371 285.29968357086182 745.94484329223633 1737.9546089172363 715.67110776901245 4028.1021537780762 1447.5689377784729 8834.6025953292847 337.85488843917847 303.22173500061035 457.49669122695923 1417.0530123710632 662.63152313232422
leaf_count=13363 38506 3071 8269 1737 1047 4252 7772 9197 8097 11423 9344 8339 4730 1373 25103 1449 4399 2748 1178 3080 7176 2955 16632 5977 36478 1395 1252 1889 5851 2736
internal_value=-0.357251 -0.282731 -0.4245 -0.356739 -0.41449 -0.223278 -0.277141 -0.294355 -0.302052 -0.242772 -0.184781 -0.35666 -0.246284 -0.151958 -0.471442 -0.270943 -0.243923 -0.413847 -0.47749 -0.456945 -0.427553 -0.406153 -0.435082 -0.453905 -0.48198 -0.291211 -0.186124 -0.303738 -0.416368 -0.347739
internal_weight=60745.6 28815 31930.6 10338.4 8959.33 19855.7 2626.06 6816.68 6518.06 4557.04 13337.6 4589.26 1566.24 9658.29 6333.27 3679.35 3328.42 3023.01 3521.68 21592.2 9931.96 7929.3 6191.34 5475.67 11660.2 1003.39 3527.25 760.718 2825.63 1408.58
internal_count=250818 118977 131841 42687 36993 81984 10843 28146 26913 18816 55071 18949 6467 39879 26150 15192 13743 12482 14541 89154 41009 32740 25564 22609 48145 4143 14564 3141 11667 5816
is_linear=0
shrinkage=1


Tree=1
num_leaves=31
num_cat=0
split_feature=2 3 9 8 2 9 8 3 5 2 5 0 1 5 2 8 9 8 2 0 1 1 0 0 5 1 8 2 0 1
split_gain=24752 17941.1 5865.39 6418.45 5791.42 4635.73 4549.01 4339.47 4266.8 3947.12 2873.08 2412.85 3046.19 2169.77 2141.05 2109.22 2359.03 2057.92 1737.56 1705.88 1452.95 3833.55 2277.92 1810.2 2115.5 1316.59 1165.69 1116.97 1113.61 2598.79
threshold=4.5000000000000009 1.0000000180025095e-35 0.47474573256922792 0.016506070959537256 10.500000000000002 0.50646624282403441 0.012556612293959752 1.0000000180025095e-35 67.500000000000014 6.5000000000000009 97.500000000000014 574.50000000000011 -25.6763809182209 39.500000000000007 2.5000000000000004 0.10012299406971552 0.43145216641683282 0.16495602382634952 9.5000000000000018 2317.0000000000005 28.74550681759715 -0.35790106951868944 586.00000000000011 654.00000000000011 63.500000000000007 47.065015126512669 0.14611880346265774 1.5000000000000002 3939.0000000000005 48.96968934911245
decision_type=2 2 2 2 2 2 2 2 2 2 2 2 2 2 2 2 2 2 2 2 2 2 2 2 2 2 2 2 2 2
left_child=2 5 3 19 6 10 -3 11 9 -7 17 12 -5 -6 -13 16 18 -2 -12 -1 21 27 -23 24 -22 -16 -8 -4 -15 -30
right_child=1 4 20 7 13 8 26 -9 -10 -11 15 14 -14 28 25 -17 -18 -19 -20 -21 23 22 -24 -25 -26 -27 -28 -29 29 -31
leaf_value=-0.13706317432877188 0.18826333265234954 -0.14318148162858313 0.076210007826506498 -0.13615575449525602 0.17717060407962371 -0.072783006949458273 0.17190406463026517 0.16765023881402574 -0.075581728302908296 0.15058646021320132 0.18392450024417617 -0.11078363676726691 0.18065694792891562 -0.1329271804189775 0.14169701236272497 -0.13916619046968434 -0.062901253967365789 -0.066526655119733685 -0.027771795093415486 0.11657618244348894 -0.100134420042139 0.14721324142739473 -0.03153119918834249 -0.12730131554984722 0.091774053583841761 -0.099839572044273378 -0.14455626388763398 -0.15329046523826118 0.24933841063411852 -0.16159170818017934
leaf_weight=3007.7676108777523 9578.1076216995716 719.74466624855995 228.58527931571007 407.83263252675533 260.18552680313587 1013.8653473258018 1802.0776109397411 2283.4856009781361 1929.4336229413748 3600.5539153665304 2159.9536829888821 2062.2622380405664 1186.2932347506285 5285.2780712842941 711.48646387457848 403.41037307679653 680.87578590214252 327.85446286201477 472.53565303981304 290.80160367488861 1669.7421213388443 938.1284831315279 2970.6853016763926 11515.896953448653 875.64538733661175 330.50824217498302 124.43507024645805 2934.7613051831722 261.11495625972748 374.80728590488434
leaf_count=12798 38506 3071 963 1737 1047 4252 7270 9197 8097 14564 8744 8725 4775 22407 2882 1712 2821 1373 1915 1178 6994 3842 12427 48812 3634 1395 502 12482 1107 1589
internal_value=-0.000203024 0.0664259 -0.0616998 0.000253824 -0.0524689 0.11847 0.0713243 0.0545646 0.049294 0.101508 0.1517 -0.0003967 0.0996053 -0.105465 -0.0517506 0.0767268 0.103012 0.179831 0.145925 -0.114702 -0.0918374 -0.0548651 0.0113681 -0.110433 -0.0341155 0.0650845 0.151464 -0.136707 -0.117884 0.00713961
internal_weight=60408.1 28994.2 31413.9 10280.4 8827.64 20166.6 2646.26 6981.87 6543.85 4614.42 13622.7 4698.38 1594.13 6181.39 3104.26 3716.78 3313.37 9905.96 2632.49 3298.57 21133.4 7072.16 3908.81 14061.3 2545.39 1041.99 1926.51 3163.35 5921.2 635.922
internal_count=250818 118977 131841 42687 36993 81984 10843 28711 26913 18816 55071 19514 6512 26150 13002 15192 13480 39879 10659 13976 89154 29714 16269 59440 10628 4277 7772 13445 25103 2696
is_linear=0
shrinkage=0.1


Tree=2
num_leaves=31
num_cat=0
split_feature=2 3 9 2 8 3 8 9 5 2 9 1 5 5 8 9 8 0 0 0 8 10 7 8 7 1 0 5 1 8
split_gain=20353 14519.9 4945.14 4832.24 4694.86 4192.93 3708.85 3707.49 3542.1 3415.72 2363.71 2542.93 2298.45 1801.9 1727.98 1825.15 1644.81 1405.43 1239.63 1238.45 2911.7 1335.43 1065.5 2714.25 1055.62 1145.15 2093.41 1052.79 4539.53 1373.2
threshold=4.5000000000000009 1.0000000180025095e-35 0.500125691302162 10.500000000000002 0.017137704495684605 1.0000000180025095e-35 0.012556612293959752 0.50646624282403441 72.500000000000014 6.5000000000000009 0.42556323604710705 51.195342427333024 97.500000000000014 39.500000000000007 0.10475283944243675 0.4072598941053629 0.16495602382634952 1453.5000000000002 2317.0000000000005 617.50000000000011 0.037683038818458907 0.0064725596983661012 0.017021584818194904 0.078758348546395421 0.008456697418293602 -25.6763809182209 629.00000000000011 75.500000000000014 46.007417434715848 0.036163128263631855
decision_type=2 2 2 2 2 2 2 2 2 2 2 2 2 2 2 2 2 2 2 2 2 2 2 2 2 2 2 2 2 2
left_child=2 7 4 6 18 10 -3 12 9 -9 11 -6 16 -5 15 -14 -2 -10 -1 20 -4 -22 -11 -24 25 -12 -27 28 29 -15
right_child=1 3 19 13 5 -7 -8 8 17 22 24 -13 14 27 -16 -17 -18 -19 -20 -21 21 -23 23 -25 -26 26 -28 -29 -30 -31
leaf_value=-0.11478957013720417 0.16860529234128444 -0.13448255069927512 -0.13027531521765714 0.15844520164592557 0.14208893299341918 0.13075800328388559 0.13530331093863618 -0.072307257127994282 0.11222223076233853 0.16811127591090119 -0.13574318306716193 -0.13173318294489009 0.14406619651218266 -0.07581200106251243 -0.15135657913812026 -0.0096302285766758609 -0.060837142456046316 -0.12890510964713367 0.094793191005206806 -0.11014117213651993 -0.040773014510799191 0.10572859009258867 -0.12197266866476274 0.17253728419662726 -0.1075256673536676 0.17352344625997285 -0.041994575958383268 -0.15050232431149813 -0.15388286840630586 0.20191054145371928
leaf_weight=3937.0626927763224 9621.3600419163704 691.14461944997311 2361.1900694817305 261.71764245629311 1463.0109221041203 2753.5654627084732 1939.5829530358315 1061.0159658491611 296.37901255488396 2541.0721240192652 596.0315043181181 441.50291299819946 2199.6742287427187 248.84381696581841 324.83431251347065 1190.942014798522 322.92782387137413 1310.7631052881479 304.00692582130432 12114.486297145486 1401.5002241134644 1119.0021163970232 514.43240058422089 798.91712579131126 2043.5311840772629 635.27296569943428 1551.246654048562 3018.4213249087334 1838.3309580534697 625.69559954106808
leaf_count=17335 38506 3071 10293 1047 5990 11126 7772 4526 1266 10205 2643 1907 8820 1075 1449 4923 1373 5599 1222 52816 5936 4617 2120 3197 8748 2554 6654 13272 8079 2677
internal_value=-0.000330881 0.0600548 -0.0569517 -0.0485572 -0.0123056 0.0268046 0.0644252 0.106464 0.0444389 0.0865762 -0.0157239 0.0786117 0.136081 -0.0981527 0.0689725 0.0900809 0.161154 -0.0844379 -0.0997663 -0.0930057 -0.050482 0.0242678 0.130312 0.0571792 -0.0529515 -0.0128718 0.0206222 -0.10987 -0.0646616 0.122887
internal_weight=59527.5 28806.1 30721.4 8623.74 13725.2 9484.16 2630.73 20182.3 6522.58 4915.44 6730.6 1904.51 13659.7 5993.01 3715.45 3390.62 9944.29 1607.14 4241.07 16996.2 4881.69 2520.5 3854.42 1313.35 4826.08 2782.55 2186.52 5731.29 2712.87 874.539
internal_count=250818 118977 131841 36993 58179 39622 10843 81984 26913 20048 28496 7897 55071 26150 15192 13743 39879 6865 18557 73662 20846 10553 15522 5317 20599 11851 9208 25103 11831 3752
is_linear=0
shrinkage=0.1


Tree=3
num_leaves=31
num_cat=0
split_feature=2 3 9 8 3 2 9 5 2 8 8 9 1 5 0 5 0 8 1 10 2 0 5 1 8 0 7 5 1 7
split_gain=16852.2 11920.6 4320.55 4275.05 4737.45 4071.15 3114.25 3180.47 3255.43 3073.73 2284.99 2284.36 2068.46 1735.06 1541.3 1512.89 1312.17 1346.9 1278.52 1252.51 1185.8 1464.51 1182.03 1126.19 1115.14 997.794 970.584 940.36 3652.7 1418.05
threshold=4.5000000000000009 1.0000000180025095e-35 0.52523574303417797 0.017137704495684605 1.0000000180025095e-35 10.500000000000002 0.47850138549584992 72.500000000000014 6.5000000000000009 0.011625948097536452 0.12772982068712493 0.42556323604710705 51.195342427333024 108.50000000000001 1453.5000000000002 39.500000000000007 617.50000000000011 0.034727247145843361 48.24871173845316 0.0053192994369464508 1.0000000180025095e-35 917.50000000000011 114.50000000000001 -63.417328869047573 0.15041903501649073 2317.0000000000005 0.023575729504400105 78.500000000000014 46.007417434715848 0.025115115325581854
decision_type=2 2 2 2 2 2 2 2 2 2 2 2 2 2 2 2 2 2 2 2 2 2 2 2 2 2 2 2 2 2
left_child=2 6 3 25 11 9 10 8 -8 -3 13 12 26 -2 -9 -7 17 -4 -12 -13 21 -21 24 -10 -6 -1 -5 28 29 -17
right_child=1 5 16 4 22 15 7 14 23 -11 18 19 -14 -15 -16 27 -18 -19 -20 20 -22 -23 -24 -25 -26 -27 -28 -29 -30 -31
leaf_value=-0.11277345392188608 0.16307279685233389 -0.14544778202851263 -0.11987995639757719 0.17804851551651116 0.13923829571945207 0.14379728490473095 -0.049043409012955085 0.10904493771778292 -0.1283340856156788 0.11673325992991057 0.18077928016932709 -0.10343844318179107 -0.1234321129302982 0.068570851568624747 -0.099282974827041445 0.2159515983630009 -0.1151417691808637 0.010295987672169611 -0.16240473770722294 0.12232629901078669 -0.054166866248510408 -0.12189462053024497 -0.12593430770038913 0.13263589715068841 -0.18786561940189786 0.048997628542241239 -0.0021729536969417392 -0.1463327221351618 -0.14614910572314219 -0.022329663202524584
leaf_weight=4454.0602355450392 8342.2552870213985 574.24527995288372 1329.7857718914747 1055.4055113941431 3043.3933606594801 259.62522956728935 1392.217895179987 451.08459003269672 171.18841056525707 2020.5334996581078 149.43188484013081 2874.966241851449 424.93510989844799 2532.6423233896494 1669.5769373476505 474.20911082625389 9581.0327335894108 1975.7652702480555 396.84883844852448 981.02522403001785 2791.7860505282879 327.51671360433102 194.57163959741592 4856.7427120804787 107.91724686324596 416.96884177625179 416.85542911291122 2637.588772892952 1871.0227741003036 527.65946857631207
leaf_count=20338 33758 2673 6009 4281 12463 1047 5954 1871 705 8170 619 12753 1907 10345 7279 1974 43423 8275 1762 4034 12252 1446 799 19691 446 1706 1709 12192 8660 2277
internal_value=-0.000415711 0.0548902 -0.052679 -0.0197113 0.0118686 -0.0453223 0.0968832 0.051208 0.0862799 0.0587105 0.131039 -0.0263697 0.0709241 0.141064 -0.0549697 -0.0921052 -0.0963986 -0.0420723 -0.0685288 -0.0528324 -0.0173497 0.0611999 0.113268 0.123751 0.128037 -0.0989256 0.127021 -0.10322 -0.0636378 0.0904547
internal_weight=58302.9 28326.9 29976 17089.4 12218.4 8364.88 19962 8540.81 6420.15 2594.78 11421.2 8872.49 1897.2 10874.9 2120.66 5770.11 12886.6 3305.55 546.281 6975.29 4100.33 1308.54 3345.88 5027.93 3151.31 4871.03 1472.26 5510.48 2872.89 1001.87
internal_count=250818 118977 131841 74134 52090 36993 81984 35500 26350 10843 46484 38382 7897 44103 9150 26150 57707 14284 2381 30485 17732 5480 13708 20396 12909 22044 5990 25103 12911 4251
is_linear=0
shrinkage=0.1


Tree=4
num_leaves=31
num_cat=0
split_feature=2 3 9 2 2 8 2 5 0 0 3 5 8 9 5 1 8 8 10 0 8 8 5 3 1 8 0 1 8 9
split_gain=14340.5 8540.37 4277.12 3985.35 3545.93 3150.68 3060.4 3217.66 2801.16 3690.91 2175.75 1877.05 1943.07 1682.63 1315.27 4344.46 1298.52 1217.29 1201.96 1182.63 1098.69 1044.15 1739.36 1000.85 1331.76 1990.27 1154.21 1000.59 968.113 952.082
threshold=3.5000000000000004 1.0000000180025095e-35 0.50646624282403441 1.0000000180025095e-35 10.500000000000002 0.012556612293959752 6.5000000000000009 72.500000000000014 378.00000000000006 1729.5000000000002 1.0000000180025095e-35 97.500000000000014 0.10012299406971552 0.4114525517733682 75.500000000000014 46.007417434715848 0.16495602382634952 0.031170937109793701 0.020779360967184756 48.000000000000007 0.036163128263631855 0.03146301810949876 65.500000000000014 1.0000000180025095e-35 28.74550681759715 0.044427157286285358 110.00000000000001 37.44894772747255 0.14611880346265774 0.42556323604710705
decision_type=2 2 2 2 2 2 2 2 2 2 2 2 2 2 2 2 2 2 2 2 2 2 2 2 2 2 2 2 2 2
left_child=3 2 11 8 5 -3 -4 -8 19 21 -11 16 13 -13 15 20 -2 -15 -12 -1 -6 -10 -23 26 25 -25 -5 -18 -7 -28
right_child=1 4 6 23 14 28 7 -9 9 10 18 12 -14 17 -16 -17 27 -19 -20 -21 -22 22 -24 24 -26 -27 29 -29 -30 -31
leaf_value=-0.064718141597964615 0.13844802692974501 -0.1273335761276001 -0.069171439553007946 0.28986557153693404 -0.07502090319105359 0.1231293515150787 0.10685705249359395 -0.092534673390988073 -0.14752725943095099 -0.14376940118165366 0.13029396077789454 0.12388823825494062 -0.13014067763099998 -0.066450795269646257 -0.13662944934671536 -0.14139239621819596 0.2584382366371285 0.20267035607338282 -0.17147223285806093 0.13560971295257615 0.16409112926318978 -0.13553937554708947 0.030705927016358239 -0.076218876696534515 -0.078992082695889074 0.1747371802888304 -0.010430126537188604 -0.15222304550256605 -0.15345450037148134 -0.10631919919125139
leaf_weight=355.62143839895725 10208.043587878346 770.01097439229488 2670.7490197569132 77.098729074001312 245.32016254961491 2136.2352956235409 3790.1719603985548 1029.0742568820715 1734.1059397906065 408.94204011559486 1881.6584160625935 2556.1011359244585 508.27942569553852 980.75186125934124 2714.8958053290844 1672.3588688224554 76.514243245124817 202.83397521078587 141.94966866075993 1719.9580667167902 886.87050396203995 1178.7662200033665 1350.256590500474 649.0317969173193 2617.1266984939575 615.9231316447258 1131.6218134015799 264.20765452086926 134.52224665880203 12186.150197058916
leaf_count=1538 42339 3719 12087 343 1075 8809 15522 4641 8067 1933 7810 10404 2380 4087 13272 8182 323 827 637 7078 3621 5423 5807 2967 11902 2647 4991 1178 546 56663
internal_value=-0.000476546 0.0456581 0.0782682 -0.0551103 -0.039243 0.0474689 0.0166945 0.0642801 -0.000213589 -0.0316773 0.0666111 0.109436 0.0533102 0.0782439 -0.0870142 -0.038985 0.132038 -0.0203309 0.109126 0.101286 0.112281 -0.087761 -0.0467803 -0.0829806 -0.0382723 0.0459749 -0.0959379 -0.0600029 0.106744 -0.0981714
internal_weight=56895.2 30846.9 22286.7 26048.2 8560.21 3040.77 7490 4819.25 8771.26 6695.68 2432.55 14796.7 4247.97 3739.69 5519.45 2804.55 10548.8 1183.59 2023.61 2075.58 1132.19 4263.13 2529.02 17277 3882.08 1264.95 13394.9 340.722 2270.76 13317.8
internal_count=250818 133012 93788 117806 39224 13074 32250 20163 38293 29677 10380 61538 17698 15318 26150 12878 43840 4914 8447 8616 4696 19297 11230 79513 17516 5614 61997 1501 9355 61654
is_linear=0
shrinkage=0.1


Tree=5
num_leaves=31
num_cat=0
split_feature=2 3 2 2 0 1 8 1 2 1 9 0 0 5 8 3 1 1 10 0 1 7 9 5 5 8 1 1 0 10
split_gain=11985.3 7099.61 3678 3356.37 3196.41 3505.65 3069.87 6001.59 2610.47 2459.28 2194.88 1950.74 3168.36 1592.28 2439.58 1530.45 1511.29 1270.4 1238 1196.4 1506.37 1130.8 1019.5 1202.01 960.312 1114.55 1041.16 2419.18 1425.09 943.061
threshold=3.5000000000000004 1.0000000180025095e-35 5.5000000000000009 1.0000000180025095e-35 1099.5000000000002 -31.592499999999955 0.019960276206642005 52.489695885509867 13.500000000000002 49.343855353659826 0.42990294695197789 421.50000000000006 1729.5000000000002 54.500000000000007 0.045030596082681611 1.5000000000000002 39.960345515970552 34.326658749795875 0.020779360967184756 447.50000000000006 51.195342427333024 0.07448815402541191 0.44658827489652747 71.500000000000014 58.500000000000007 0.019418948990281851 23.497107055230106 -44.756466186252744 553.50000000000011 0.0049030211262527509
decision_type=2 2 2 2 2 2 2 2 2 2 2 2 2 2 2 2 2 2 2 2 2 2 2 2 2 2 2 2 2 2
left_child=3 2 10 9 -4 -6 -3 15 13 11 19 -1 -13 -7 16 -8 22 29 -14 -2 -21 -16 -15 -24 -5 -26 27 -27 -28 -12
right_child=1 6 4 24 5 8 7 -9 -10 -11 17 12 18 14 21 -17 -18 -19 -20 20 -22 -23 23 -25 25 26 28 -29 -30 -31
leaf_value=0.1195836217879305 -0.16120100079831493 -0.11093447357464721 0.14951696427488789 -0.10766130884025554 -0.20645738651698842 0.12460661066248213 0.11914847226961273 -0.12679535235362155 0.16352286480626055 -0.094404718563577059 -0.098462468861050798 -0.077999192975295645 0.11132966199812999 0.078074885191368473 -0.098043853815165935 -0.18091569027034329 0.14236805009841361 -0.11869145784245623 -0.15411109784372565 0.15438656335830633 -0.13918282098056842 0.11260550131028657 0.11952980078866229 -0.13119835630125454 -0.10550485617747669 -0.12387682390331599 0.12588093852494994 0.10997145464282593 -0.07491987293766976 0.058472633677531152
leaf_weight=1771.9258179366589 173.18863259255886 3337.5567886829376 6463.9241899251938 6423.2170718461275 471.51269237697124 1836.8721020966768 2825.55142390728 1877.1085879355669 2395.9082026332617 2098.5570891052485 571.79655890166759 2578.1375648677349 1923.9093261808157 1079.8978949189186 1799.1612133383751 180.85655057430267 1541.3316271901131 1518.4182784408331 193.36491218209267 1337.6979971528053 201.05808955430984 296.89099958539009 262.27994103729725 705.59921376407146 3376.8149978369474 686.06690789759159 382.75412775576115 1245.4895668029785 4614.4140654057264 1159.1652925461531
leaf_count=7361 760 16901 27387 31106 1961 7793 11832 9681 10124 9854 2547 12052 8096 4509 8000 810 6440 7031 930 5560 1004 1278 1107 3179 16386 3437 1596 5307 21681 5108
internal_value=-0.000530742 0.04218 0.0720261 -0.051247 0.0943047 0.0599537 -0.0370169 0.0135009 0.0726192 -0.000341417 -0.00365301 0.0301808 -0.00355755 0.0436647 0.0175124 0.101098 0.0675728 -0.0519312 0.0870877 0.0879822 0.116028 -0.0682069 0.0112755 -0.063255 -0.0773131 -0.0583977 -0.0354393 0.0269112 -0.0595397 0.00663154
internal_weight=55330.4 30035.8 21814.7 25294.7 16853.4 10389.5 8221.07 4883.52 9917.94 8565.89 4961.32 6467.34 4695.41 7522.03 5685.16 3006.41 3589.11 3249.38 2117.27 1711.94 1538.76 2096.05 2047.78 967.879 16728.8 10305.5 6928.72 1931.56 4997.17 1730.96
internal_count=250818 133012 93788 117806 71778 44391 39224 22323 42430 38293 22010 28439 21078 32306 24513 12642 15235 14686 9026 7324 6564 9278 8795 4286 79513 48407 32021 8744 23277 7655
is_linear=0
shrinkage=0.1


Tree=6
num_leaves=31
num_cat=0
split_feature=2 3 9 2 2 2 8 5 8 9 5 0 8 9 5 1 8 1 6 6 9 8 3 8 9 6 2 0 0 7
split_gain=10046.5 5939.05 3186.31 2851.63 2693.73 2436.6 2361.62 2325.93 2220.76 2453.08 1554.54 1464.61 1361.38 1182.51 1096.06 3322.7 1017.09 998.671 1223.12 994.501 950.606 929.697 892.828 1079.48 1529.51 1236.55 987.313 2210.81 1278.85 1716.16
threshold=3.5000000000000004 1.0000000180025095e-35 0.500125691302162 1.0000000180025095e-35 10.500000000000002 6.5000000000000009 0.011625948097536452 72.500000000000014 0.03146301810949876 0.54306062273030975 97.500000000000014 1994.0000000000002 0.10374330758806587 0.4114525517733682 75.500000000000014 46.007417434715848 0.031170937109793701 48.96968934911245 0.41083659491193741 0.38433373349339744 0.42230635933419619 0.12351486292820486 1.0000000180025095e-35 0.017401739507745952 0.58309394509133072 0.4806443556443557 1.5000000000000002 505.50000000000006 2823.5000000000005 0.015286649010749252
decision_type=2 2 2 2 2 2 2 2 2 2 2 2 2 2 2 2 2 2 2 2 2 2 2 2 2 2 2 2 2 2
left_child=3 2 10 8 6 -4 -3 -7 11 21 17 -1 13 -12 15 -6 -15 -2 -19 -13 -20 -10 26 -24 25 -25 27 -5 -28 -30
right_child=1 4 5 22 14 7 -8 -9 9 -11 12 19 -14 16 -16 -17 -18 18 20 -21 -22 -23 23 24 -26 -27 28 -29 29 -31
leaf_value=-0.11095280051412229 0.12870038380317603 -0.13326667864232355 -0.060547772498257227 0.11807535516453477 0.096972595611054993 0.092044170857321639 0.088017130621911022 -0.079698477073890717 0.10579762463091541 -0.048677970427077513 0.10096817074382308 0.10667422021775591 -0.13400437481284075 -0.065176797060857369 -0.1276131652555561 -0.13222228577606018 0.18083183926108548 0.15743775567752893 0.10617201546430351 -0.20960170012586654 -0.16280636375578197 -0.079391563205933699 -0.1251294222937461 0.013421305564476658 -0.0928481115366106 0.21475487623031619 -0.10819975658579342 -0.084152360532243578 0.28158345157751807 -0.13892603002704804
leaf_weight=2209.0064268559217 8563.4185649454594 610.05562210083008 2739.0770635902882 718.81124138832092 1107.1994050592184 3895.9782444089651 2302.9150406569242 988.68687258660793 3096.5572297275066 2063.4453064650297 2528.0076027810574 594.65001989901066 388.90521413087845 944.25276872515678 2421.5755521804094 1475.4176504164934 204.44573937356472 396.93377983570099 200.35765913128853 119.37876690924168 381.70986546576023 297.09727995097637 892.38980908691883 1355.6059711426497 1074.7448713481426 393.63607653975487 9147.2876568734646 2180.3706634938717 199.53056421875954 188.96666212379932
leaf_count=10926 37704 3321 12852 3085 4696 16615 9753 4746 13314 9663 10667 2511 2072 3982 13272 8182 827 1738 887 503 1698 1376 4482 6027 5347 1660 46235 10739 969 969
internal_value=-0.000546375 0.0391408 0.0667045 -0.0477037 -0.0347781 0.0149481 0.0416743 0.0572824 -0.000370706 0.037305 0.0957005 -0.0707086 0.0439197 0.0627396 -0.0792815 -0.0339636 -0.0213921 0.117762 0.0220837 0.0537959 -0.0702194 0.0895852 -0.0722624 -0.0292551 0.00104152 0.0587279 -0.0851158 -0.0340129 -0.100653 0.0770459
internal_weight=53680.4 29148.9 21231.8 24531.5 7917.16 7623.74 2912.97 4884.67 8380.14 5457.1 13608 2923.04 4065.61 3676.71 5004.19 2582.62 1148.7 9542.42 979.001 714.029 582.068 3393.65 16151.3 3716.38 2823.99 1749.24 12435 2899.18 9535.78 388.497
internal_count=250818 133012 93788 117806 39224 34213 13074 21361 38293 24353 59575 13940 17548 15476 26150 12878 4809 42027 4323 3014 2585 14690 79513 17516 13034 7687 61997 13824 48173 1938
is_linear=0
shrinkage=0.1


Tree=7
num_leaves=31
num_cat=0
split_feature=2 3 9 8 3 2 0 1 2 2 6 9 5 9 1 2 0 0 1 8 8 5 1 5 8 2 1 7 9 1
split_gain=8460.85 5787.85 2938.14 2906.37 2606.63 2299.2 2104.63 2946.44 2373.64 2278.37 1709.74 1703.08 1506.58 1401.3 1306.97 1112.89 2452.14 1204.24 1017.95 1007.6 1006.77 996.859 2827.86 985.584 879.755 834.872 818.51 1446.14 1030.78 812.898
threshold=4.5000000000000009 1.0000000180025095e-35 0.5411298109563828 0.017137704495684605 1.0000000180025095e-35 10.500000000000002 1079.5000000000002 -31.592499999999955 13.500000000000002 5.5000000000000009 0.34855435084792891 0.43939078021271216 65.500000000000014 0.42556323604710705 51.195342427333024 1.5000000000000002 642.50000000000011 2823.5000000000005 32.137192298406596 0.14611880346265774 0.11012149625988978 78.500000000000014 46.007417434715848 51.500000000000007 0.036163128263631855 1.5000000000000002 33.64323324920236 0.017021584818194904 0.58597678306153866 59.653498401005102
decision_type=2 2 2 2 2 2 2 2 2 2 2 2 2 2 2 2 2 2 2 2 2 2 2 2 2 2 2 2 2 2
left_child=2 6 3 -1 13 10 9 -8 11 -2 -3 20 26 14 -5 16 -15 -17 25 -12 -9 22 24 -6 -7 -4 -13 28 -28 -14
right_child=1 5 18 4 23 21 7 8 -10 -11 19 12 29 15 -16 17 -18 -19 -20 -21 -22 -23 -24 -25 -26 -27 27 -29 -30 -31
leaf_value=-0.083784580783965557 -0.082396346100645779 -0.064301871421618403 0.0207265657616852 0.10599547247445218 -0.15043206337788867 -0.058991264225632126 -0.19728871446840598 0.095610553609991059 0.14784926295257128 0.13442333908824999 0.1369226569331321 0.1301489484148925 -0.078086159877533146 0.11190862444504464 -0.10627645582985226 -0.08188972044661709 -0.071731520816465749 0.19716112138918829 -0.10561531550472802 -0.15941863686613844 -0.091522801444407595 -0.12778314755434866 -0.12823144878965942 0.095227462920257397 0.13218803739886936 -0.080746222080693875 0.14356871750111624 -0.12028334453220423 -0.085982981510236881 0.12311570294684691
leaf_weight=4436.7877725511789 527.71812461316586 887.96536685526371 1407.3883216530085 1389.5991806685925 171.67388197779655 333.86826120316982 478.96873959898949 3709.6353210657835 2247.4762388169765 5938.1220090389252 1339.8623992353678 834.90002094209194 2302.6577973812819 1297.6186679154634 366.56880369782448 4026.4798922836781 1653.8973258584738 160.82563428580761 6601.3449991494417 125.48257818818092 311.64615911245346 2070.993420496583 1469.5709889233112 3354.22350487113 862.57507199048996 1912.8016624450684 712.81488256156445 564.38853061199188 269.60351946949959 219.98784506320953
leaf_count=23262 2359 4492 6440 5990 798 1574 2007 16321 10234 27018 5849 3704 10908 5425 1907 20307 8121 719 34574 502 1614 12192 8763 14410 3621 9888 3139 2488 1198 994
internal_value=-0.000581638 0.0409985 -0.0397225 -0.0143111 0.010505 -0.035598 0.0709739 0.045585 0.0559965 0.116727 0.045194 0.0328679 -0.00668596 -0.018337 0.0616875 -0.0380232 0.00900491 -0.071172 -0.0828989 0.111546 0.0811079 -0.0757348 -0.035303 0.0832664 0.0788393 -0.0377331 0.0503552 0.00728602 0.0805732 -0.0605403
internal_weight=51987.4 25208.2 26779.2 16857.7 12420.9 7090.32 18117.9 11652.1 11173.1 6465.84 2353.31 8925.63 4904.35 8894.99 1756.17 7138.82 2951.52 4187.31 9921.53 1465.34 4021.28 4737.01 2666.01 3525.9 1196.44 3320.19 2381.71 1546.81 982.418 2522.65
internal_count=250818 118977 131841 80939 57677 36993 81984 52607 50600 29377 10843 40366 22431 42469 7897 34572 13546 21026 50902 6351 17935 26150 13958 15208 5195 16328 10529 6825 4337 11902
is_linear=0
shrinkage=0.1


Tree=8
num_leaves=31
num_cat=0
split_feature=2 3 0 2 5 2 8 2 2 8 1 0 0 8 10 8 3 1 9 9 6 6 10 8 5 0 0 5 8 1
split_gain=7320.74 4614.31 3097.74 2222.64 2158.74 2690.19 2728.03 2131.78 1806.69 2952.88 2037.66 1780.66 2106.42 1603.48 1527.99 1376.95 1371.2 1343.89 1284.35 1068.3 916.88 901.389 832.69 802.984 1269.58 854.336 799.228 784.989 828.877 854.493
threshold=3.5000000000000004 1.5000000000000002 1025.5000000000002 5.5000000000000009 78.500000000000014 9.5000000000000018 0.098732994269359567 1.0000000180025095e-35 8.5000000000000018 0.059873207600480309 -1.033920848633201 396.50000000000006 1729.5000000000002 0.011023180458624051 0.0042284999106025007 0.05836149266253831 1.0000000180025095e-35 42.52050242614532 0.4196947355887235 0.48561033127456482 0.55325080325080334 0.33027291105121298 0.020779360967184756 0.03146301810949876 65.500000000000014 1037.0000000000002 48.000000000000007 58.500000000000007 0.019418948990281851 23.497107055230106
decision_type=2 2 2 2 2 2 2 2 2 2 2 2 2 2 2 2 2 2 2 2 2 2 2 2 2 2 2 2 2 2
left_child=7 2 3 20 8 6 13 11 9 -4 15 26 23 17 21 -10 -14 -6 -11 -15 -2 -7 -18 -13 -25 -26 -1 -9 -29 -30
right_child=1 -3 4 -5 5 14 -8 27 10 18 -12 12 16 19 -16 -17 22 -19 -20 -21 -22 -23 -24 24 25 -27 -28 28 29 -31
leaf_value=-0.059311131036826649 -0.049702765078742168 -0.13168162729606145 0.080225585246558706 0.12673900761058063 -0.10455120506890705 -0.10082023894443062 -0.10676517425314347 -0.093809300358361492 -0.15815825222692892 0.1484092955483067 0.10745531507090832 -0.13225815310704306 -0.13268910656736496 0.13462585474173269 -0.12137177037981235 0.14627464371004689 0.099748474834893464 0.16222578545989597 -0.12470347603735794 -0.063743344390358364 0.15677221597469171 0.12615468982798081 -0.16176247518090667 -0.1210745534041487 0.074684974456032088 -0.11437318957246248 0.10940404746177752 -0.09037107077165446 0.031803704517418971 -0.049237570668055786
leaf_weight=337.44214183092117 1174.5289018750191 1572.8619226962328 2097.0966988950968 5909.9188412576914 736.07014435529709 279.83651910722256 1093.1072638630867 5627.0209593623877 517.46306702494621 193.19834253191948 5528.8497189581394 1440.7861150503159 352.77555446326733 2426.3132110238075 2575.42974370718 208.40928894281387 1781.7317140996456 253.98554591834545 1583.1702774167061 305.68928305804729 263.2778448164463 466.88748417794704 130.69085446000099 1010.781440705061 978.13411158323288 316.31947202980518 1672.0540208816528 2960.1866614818573 1810.6151158511639 4623.0389963388443
leaf_count=1538 5561 9753 9571 28139 3463 1510 5851 31106 2292 884 26000 8067 1933 10719 14856 931 7810 1125 7425 1432 1220 2280 637 5325 4218 1456 7309 16386 8744 23277
internal_value=-0.000576646 0.0345704 0.0447796 0.099611 0.0227224 -0.0156315 0.0321275 -0.0420456 0.0535372 -0.000132594 0.0867742 -0.000420423 -0.0276629 0.0729179 -0.0848539 -0.0707508 0.0484614 -0.0361131 -0.0949997 0.11243 -0.011895 0.0410953 0.0818774 -0.0736948 -0.0370923 0.0284857 0.0810728 -0.0642723 -0.0465793 -0.0264302
internal_weight=50227.7 27186.1 25613.2 7347.73 18265.5 8137.32 4815.17 23041.6 10128.2 3873.47 6254.72 8020.72 6011.22 3722.06 3322.15 725.872 2265.2 990.056 1776.37 2732 1437.81 746.724 1912.42 3746.02 2305.24 1294.45 2009.5 15020.9 9393.84 6433.65
internal_count=250818 133012 123259 34920 88339 41236 22590 117806 47103 17880 29223 38293 29446 16739 18646 3223 10380 4588 8309 12151 6781 3790 8447 19066 10999 5674 8847 79513 48407 32021
is_linear=0
shrinkage=0.1


Tree=9
num_leaves=31
num_cat=0
split_feature=2 3 0 2 0 10 8 2 2 8 8 1 5 9 0 0 5 6 0 1 5 1 0 5 3 8 8 9 8 1
split_gain=6168.49 3986.17 2644.31 1942.25 1910.96 2130.7 1809.65 1855.92 1783.42 1618.34 1639.84 1510.91 1401.39 1353.84 969.564 940.332 877.537 851.775 848.667 811.889 798.193 762.579 1172 712.649 836.486 756.525 736.027 750.209 933.532 941.709
threshold=3.5000000000000004 1.5000000000000002 1025.5000000000002 5.5000000000000009 1617.0000000000002 0.0095695970695970512 0.12882375019258063 9.5000000000000018 1.0000000180025095e-35 0.03146301810949876 0.12351486292820486 -3.6316984212469801 61.500000000000007 0.5473260293496941 1994.0000000000002 396.50000000000006 51.500000000000007 0.38433373349339744 946.50000000000011 20.041835164835195 111.50000000000001 60.898907462511687 2468.0000000000005 58.500000000000007 1.0000000180025095e-35 0.059095485315272006 0.019418948990281851 0.49834785182481584 0.050765099320707059 -51.397166666666642
decision_type=2 2 2 2 2 2 2 2 2 2 2 2 2 2 2 2 2 2 2 2 2 2 2 2 2 2 2 2 2 2
left_child=8 2 3 18 5 -4 11 -8 9 14 16 -6 -13 19 -1 -12 -11 20 -2 -14 -16 -21 -23 24 -10 -26 -25 28 29 -28
right_child=1 -3 4 -5 6 -7 7 -9 23 10 15 12 13 -15 17 -17 -18 -19 -20 21 -22 22 -24 26 25 -27 27 -29 -30 -31
leaf_value=-0.10053585760813587 -0.03456563782405999 -0.12832317133200233 0.029187597899409112 0.11988787187022783 -0.14909520806538654 -0.10167894565458845 -0.12106594777982034 0.12026919494292593 -0.10648857502223048 -0.10849876463649571 0.10581176352117105 0.11449148773173839 -0.024574813880811834 -0.1044717000751702 0.13715986071807063 -0.12400339515994595 0.074182663616041922 -0.20812748550705013 0.24045743011492668 0.081467003961816831 -0.20058807660590974 0.15117866276798694 -0.12858456750230049 -0.085447478031040983 -0.094257034992470734 0.090115886860568803 -0.12903794801375165 -0.056062487965037579 -0.061768705300544603 0.082404663006444223
leaf_weight=1939.2137861698866 1300.6663145422935 1458.5018142163754 2697.579647347331 5637.1090626418591 346.82925955951214 2309.0696854293346 1193.2486287951469 434.75303107500076 4470.0778746753931 282.69450008869171 224.11954259872437 3535.5077855139971 1171.4399194270372 613.74288912117481 485.79632300138474 866.00320725142956 3765.2385106384754 116.70216639339924 122.794424071908 4707.7973046153784 81.74594946205616 227.57792460918427 437.82746252417564 2824.8238898664713 436.96301025152206 453.54832704365253 241.69439525902271 3408.3075992316008 1069.8219983130693 1639.1280660182238
leaf_count=10926 6267 9753 12941 28139 1892 12974 6405 2085 26554 1360 923 17009 5766 3003 2160 4892 17178 503 514 22491 351 1065 2708 16386 2320 2232 1387 17991 5408 7235
internal_value=-0.000581608 0.032328 0.0418004 0.093532 0.0211358 -0.0311681 0.0418062 -0.0566181 -0.0392283 -0.000521083 0.0321076 0.0563193 0.0629814 0.0375407 -0.0644245 -0.0767554 0.0614248 0.0379186 -0.0108409 0.0508583 0.0885123 0.0673038 -0.0329016 -0.0598841 -0.0888572 -0.000353649 -0.0429725 -0.0241039 0.0128116 0.0552333
internal_weight=48500.3 26194.4 24735.9 7060.57 17675.4 5006.65 12668.7 1628 22305.9 7761.51 5138.06 11040.7 10693.9 7158.39 2623.46 1090.12 4047.93 684.244 1423.46 6544.64 567.542 5373.2 665.405 14544.4 5360.59 890.511 9183.78 6358.95 2950.64 1880.82
internal_count=250818 133012 123259 34920 88339 25915 62424 8490 117806 38293 24353 53934 52042 35033 13940 5815 18538 3014 6781 32030 2511 26264 3773 79513 31106 4552 48407 32021 14030 8622
is_linear=0
shrinkage=0.1


Tree=10
num_leaves=31
num_cat=0
split_feature=2 3 0 2 5 3 9 2 8 1 5 8 0 1 3 10 1 8 7 2 8 1 9 5 9 0 0 10 8 7
split_gain=5189.11 3444.76 2289 1900.37 1732.85 2119.56 1834.33 1568.43 2654.06 1563.53 1524.92 1763.19 1624.54 2783.79 1780.2 1630.04 867.602 935.972 800.245 776.246 754.419 880.007 748.113 787.187 697.887 757.294 919.869 800.005 721.754 675.97
threshold=3.5000000000000004 1.5000000000000002 1006.0000000000001 5.5000000000000009 73.500000000000014 1.0000000180025095e-35 0.46259925080469666 8.5000000000000018 0.059873207600480309 -31.592499999999955 51.500000000000007 0.017137704495684605 574.50000000000011 -31.592499999999955 1.0000000180025095e-35 0.014599317988064752 -12.742874999999982 0.10012299406971552 0.017964716006884655 8.5000000000000018 0.0093175884226288017 38.769115485564335 0.57735541113979649 114.50000000000001 0.43626506407198956 2823.5000000000005 885.50000000000011 0.0082305920606963508 0.068785490262564655 0.022805283960890353
decision_type=2 2 2 2 2 2 2 2 2 2 2 2 2 2 2 2 2 2 2 2 2 2 2 2 2 2 2 2 2 2
left_child=10 2 3 -2 7 6 16 8 -4 -9 -1 -12 13 -13 18 22 -6 20 24 -7 21 -18 23 29 -14 26 27 -26 -27 -16
right_child=1 -3 4 -5 5 19 -8 9 -10 -11 11 12 14 -15 15 -17 17 -19 -20 -21 -22 -23 -24 -25 25 28 -28 -29 -30 -31
leaf_value=-0.090981284240056373 -0.015185535785914757 -0.12539834909251113 0.075104445187527583 0.11650073285170637 -0.18003019251017049 0.039597456698961482 -0.065206144915751191 -0.10453394872998766 -0.10783655648277209 0.10096930800648517 -0.08511564307877055 -0.11445964764505641 0.061792410148756541 0.090776743055007852 0.13390778044651186 -0.067918680561330297 -0.13625339935385905 -0.068475069250090892 -0.12380230886867796 -0.10932084585653007 0.098274961852028331 0.1243986750966152 -0.048117374711560433 -0.12042168471214242 -0.091939493270142877 0.23586702263684223 -0.10069476276049226 0.083887019460174822 -0.13512924008559876 -0.049502292912001727
leaf_weight=4163.1396848782897 1386.4465223699808 1348.8973976075649 1860.7366154491901 5228.7084821462631 151.36815793812275 414.92891848087311 1770.5590412169695 400.50017827749252 1382.0368291437626 4898.0944121330976 3679.2584426105022 839.82403254508972 574.18685860931873 3101.8136058300734 1725.8672965019941 1276.1067093759775 317.00211863219738 476.75319355726242 1588.8212038427591 2237.8316190242767 3257.3331327438354 219.02027298510075 439.81018327176571 156.66309879720211 445.60459877550602 161.95876312255859 2530.2047367244959 617.20635257661343 77.54611437022686 227.42670837044716
leaf_count=25134 6658 9753 8569 27418 631 1932 9343 1775 6780 24424 22502 5217 2744 14016 7838 6519 1391 2757 8883 15098 15495 988 2433 671 2401 702 14372 2967 410 997
internal_value=-0.00059297 0.0300968 0.0388358 0.0889011 0.0197867 -0.0112373 0.0208041 0.0519129 -0.00286314 0.0854361 -0.036602 -0.0236228 -0.00718395 0.0470481 -0.028949 0.0243472 0.0552465 0.0635866 -0.0629584 -0.0860279 0.0801843 -0.0297502 0.0705244 0.0952547 -0.0410213 -0.0564249 -0.0679016 0.0101683 0.115747 0.112553
internal_weight=46955.7 25350.2 24001.3 6615.16 17386.2 8844.8 6192.04 8541.37 3242.77 5298.59 21605.4 17442.3 13763 3941.64 9821.4 3825.87 4421.48 4270.11 5995.53 2652.76 3793.36 536.022 2549.77 2109.96 4406.71 3832.52 3593.02 1062.81 239.505 1953.29
internal_count=250818 133012 123259 34076 89183 47635 30605 41548 15349 26199 117806 92672 70170 19233 50937 18458 21262 20631 32479 17030 17874 2379 11939 9506 23596 20852 19740 5368 1112 8835
is_linear=0
shrinkage=0.1


Tree=11
num_leaves=31
num_cat=0
split_feature=9 8 1 2 3 9 1 3 2 1 2 10 5 9 5 8 0 1 0 2 5 0 8 5 10 1 7 1 0 1
split_gain=4687.37 3629.81 2870.83 2289.47 1502.94 1506.97 1455.25 1419.99 2412.88 1226.22 1015.22 952.053 903.589 1543.35 855.57 811.518 779.821 717.306 701.794 701.779 1267.08 979.816 963.54 648.417 712.532 639.598 631.566 625.853 611.341 952.607
threshold=0.53928493222545482 0.017137704495684605 28.221546863184972 5.5000000000000009 1.0000000180025095e-35 0.42556323604710705 48.24871173845316 1.0000000180025095e-35 3.5000000000000004 51.195342427333024 6.5000000000000009 0.0067340830763649006 91.500000000000014 0.3929064794688415 69.500000000000014 0.14611880346265774 447.50000000000006 81.545556144284134 2526.5000000000005 10.500000000000002 92.500000000000014 1651.0000000000002 0.05836149266253831 114.50000000000001 0.012158167036215802 -8.7068332420591172 0.023575729504400105 42.753434994971478 629.00000000000011 24.805920991703648
decision_type=2 2 2 2 2 2 2 2 2 2 2 2 2 2 2 2 2 2 2 2 2 2 2 2 2 2 2 2 2 2
left_child=1 7 10 4 5 9 19 8 -1 26 25 17 16 -14 -9 23 -10 -7 -8 -5 21 22 -21 24 -6 -2 -3 -15 -13 -30
right_child=2 3 -4 6 15 11 18 14 12 -11 -12 28 13 27 -16 -17 -18 -19 -20 20 -22 -23 -24 -25 -26 -27 -28 -29 29 -31
leaf_value=-0.084196140359441812 -0.094710710403581228 0.13973538077879563 -0.081906785802150453 0.11341203003220478 0.12334258336802589 -0.076553511440795419 0.0742577958379491 0.075925568120148668 -0.12111685050060644 -0.10048417883771094 0.07607022458547083 0.070698751891362335 0.1078185289644823 -0.091246314104501916 -0.10235778211939012 -0.15275142499449634 0.13202413075364011 0.1908144763743706 -0.073010051665869533 -0.10350986192179126 -0.14402763277441474 0.1186865022509755 0.15905471654030987 -0.096825981540788697 0.02124125949129875 0.0074999686663034847 0.002152600560362847 0.15987423133464274 0.073641633206576837 -0.057862807980086077
leaf_weight=2239.0570392459631 840.9509364515543 1253.3563458323479 9107.2485519871116 5842.2283943742514 2161.9444816112518 3216.0376522094011 523.22218137979507 296.38928404450417 133.99248678982258 357.79638639092445 1691.0102617591619 1036.4281523227692 859.99088440835476 1077.3471240401268 2931.4976775720716 156.59178909659386 1325.8878627866507 103.57431991398335 848.09994148463011 470.38000138103962 295.79246506094933 1593.9877070039511 198.84888592362404 195.00529491901398 999.500254586339 2251.0202021896839 454.69081722199917 109.31492218375206 775.57896044850349 1901.0732994526625
leaf_count=14771 4812 5904 55971 31558 10214 18296 2639 1418 643 2195 8707 4940 4233 4976 20137 760 6968 422 4946 2471 1416 8588 949 842 4480 11048 2131 492 3497 10394
internal_value=-0.000601066 0.0208204 -0.0489606 0.0423621 0.0142096 -0.00724114 0.0786932 -0.032915 -0.0030987 0.0678484 0.013772 -0.0292986 0.0486851 0.00581224 -0.0859875 0.0697655 0.10879 -0.0682114 -0.0168206 0.0942838 0.0506139 0.0760527 -0.0254937 0.0801468 0.0910629 -0.0202992 0.10311 -0.0681132 0.00549076 -0.0197585
internal_weight=45247.8 31357.6 13890.2 22384.1 12611.6 9098.54 9772.56 8973.48 5745.59 2065.84 4782.98 7032.69 3506.53 2046.65 3227.89 3513.04 1459.88 3319.61 1371.32 8401.24 2559.01 2263.22 669.229 3356.45 3161.44 3091.97 1708.05 1186.66 3713.08 2676.65
internal_count=250818 170280 80538 116642 64075 47779 52567 53638 32083 10230 24567 37549 17312 9701 21555 16296 7611 18718 7585 44982 13424 12008 3420 15536 14694 15860 8035 5468 18831 13891
is_linear=0
shrinkage=0.1


Tree=12
num_leaves=31
num_cat=0
split_feature=9 8 1 2 1 3 7 3 2 1 0 8 1 5 9 5 8 0 0 0 0 7 1 7 2 1 7 7 5 5
split_gain=3942.65 3067.71 2446.98 2005.92 2034.46 1314.53 1298.56 1229.2 2063.83 1020.76 1974.2 1000.54 986.875 781.445 1299.11 757.901 734.258 668.055 659.398 899.259 1778.22 908.968 611.844 609.818 663.403 983.206 581.093 580.487 562.065 635.445
threshold=0.53928493222545482 0.017137704495684605 28.221546863184972 3.5000000000000004 49.638060880829052 1.0000000180025095e-35 0.019672342621259005 1.0000000180025095e-35 3.5000000000000004 -31.592499999999955 553.50000000000011 0.082279795152563215 -11.278045454545433 91.500000000000014 0.3929064794688415 72.500000000000014 0.037073206018518511 447.50000000000006 304.50000000000006 1073.5000000000002 1419.5000000000002 0.088020086083213711 20.641021314153608 0.047019344650611854 8.5000000000000018 38.106973664487036 0.034408761284593706 0.042654986522911005 51.500000000000007 100.50000000000001
decision_type=2 2 2 2 2 2 2 2 2 2 2 2 2 2 2 2 2 2 2 2 2 2 2 2 2 2 2 2 2 2
left_child=1 7 11 5 18 6 9 8 -1 -3 -11 12 -2 17 -15 -9 -6 -10 -5 -20 21 -21 27 24 -4 -26 -19 -8 -7 -30
right_child=2 3 23 4 16 28 22 15 13 10 -12 -13 -14 14 -16 -17 -18 26 19 20 -22 -23 -24 -25 25 -27 -28 -29 29 -31
leaf_value=-0.080121417649668056 -0.12321299839415052 -0.1079154314742809 -0.07289315877634478 -0.13325276198805519 0.049483198865217431 -0.13464902488358341 -0.088546131330851818 0.046251565261589606 -0.11061997496417585 0.12969696662031879 -0.020369492965879473 0.067900712395288304 0.010632668683003313 0.10136390228181286 -0.062806052684420632 -0.10132671423058259 -0.083386758609532541 0.13755633221905947 0.12812339799930766 -0.11173293765718822 0.086621732367586635 0.11274577597563809 -0.12264039198636352 -0.11776650018161941 -0.13721583076655486 0.094350741042035766 -0.26641012736522174 0.19472404339342941 0.089261838874720986 -0.043081578525539593
leaf_weight=2123.7100115120411 757.05740727484226 671.22180849313736 5339.1201959326863 138.39598283171654 672.53723684698343 141.40915456414223 164.40172889828682 400.43536147475243 132.13354063034058 1256.374076500535 2900.4775177538395 1929.9941550046206 2022.7051776647568 825.11413304507732 1159.1729044765234 2657.0425747036934 1089.938917465508 1219.6585511416197 3439.3314767330885 756.88094566762447 5757.9220274686813 236.82567553222179 1403.5890747159719 2567.8225787803531 266.60523638129234 587.1860361173749 36.679505065083504 129.18979531526566 2439.3745258003473 426.19238647818565
leaf_count=14771 4632 4585 32397 746 3818 798 981 2033 643 5908 15586 9836 10099 4233 5468 19522 6247 6806 20292 3664 30628 1035 8218 19198 1317 3059 162 536 11716 1884
internal_value=-0.000559046 0.0195206 -0.0455436 0.0395735 0.0666155 0.00527006 -0.0199388 -0.0311723 -0.0028996 0.00651015 0.0249869 0.0125857 -0.0258197 0.0457243 0.00545975 -0.0819985 -0.0326854 0.103267 0.083559 0.0865034 0.0653018 -0.0582339 -0.0951799 -0.0767938 -0.0598049 0.0220417 0.125762 0.0361019 0.0599743 0.0695786
internal_weight=43648.5 30178 13470.5 21624.1 12091.8 9532.23 6525.25 8553.95 5496.47 4828.07 4156.85 4709.76 2779.76 3372.76 1984.29 3057.48 1762.48 1388.47 10329.4 10191 6751.63 993.707 1697.18 8760.73 6192.91 853.791 1256.34 293.592 3006.98 2865.57
internal_count=250818 170280 80538 116642 66430 50212 35814 53638 32083 26079 21494 24567 14731 17312 9701 21555 10065 7611 56365 55619 35327 4699 9735 55971 36773 4376 6968 1517 14398 13600
is_linear=0
shrinkage=0.1


Tree=13
num_leaves=31
num_cat=0
split_feature=9 8 1 9 3 2 5 2 3 0 1 5 2 7 5 10 5 9 1 10 0 7 5 0 0 9 0 0 8 1
split_gain=3329.69 2588.1 2113.33 1831.35 1065.26 1764.75 1054.24 1541.45 1592.23 1088.6 1026.6 975.434 844.153 828.677 689.917 768.79 684.381 1090.55 660.415 602.738 668.838 591.982 623.479 890.071 709.364 698.552 576.575 558.814 549.916 605.584
threshold=0.53928493222545482 0.017137704495684605 28.221546863184972 0.43939078021271216 1.0000000180025095e-35 3.5000000000000004 72.500000000000014 5.5000000000000009 1.0000000180025095e-35 1037.0000000000002 51.080146548338682 51.500000000000007 6.5000000000000009 0.0064309346567411009 80.500000000000014 0.013029454205924751 91.500000000000014 0.3929064794688415 -51.397166666666642 0.0070176302570668014 2254.0000000000005 0.047019344650611854 52.500000000000007 1353.0000000000002 885.50000000000011 0.70357707262009284 447.50000000000006 3207.0000000000005 0.092644376899696013 59.168152958152994
decision_type=2 2 2 2 2 2 2 2 2 2 2 2 2 2 2 2 2 2 2 2 2 2 2 2 2 2 2 2 2 2
left_child=1 4 12 10 5 -1 7 8 19 18 -3 -10 27 -12 15 -6 26 -18 -8 20 -5 22 23 -4 28 -25 -7 -2 -24 -30
right_child=2 3 21 6 14 16 9 -9 11 -11 13 -13 -14 -15 -16 -17 17 -19 -20 -21 -22 -23 24 25 -26 -27 -28 -29 29 -31
leaf_value=-0.076189597390958611 -0.027271988068454309 0.087897997357472432 -0.07309694287843789 -0.088877151493433906 0.097382688791271418 -0.10127909053168632 -0.12226967510051312 0.089221891561430788 -0.13598661310536814 -0.054486731253742517 -0.1339378735106089 0.11893423428624467 0.069961073436464793 0.060849374347025545 -0.10430330853652259 -0.12834917243669675 0.095425492917993945 -0.057289581516454982 0.06285936826796959 0.010905778026795938 0.26738324603528402 -0.11485150555988217 -0.049014411831709438 0.11128437190022041 -0.099370577589214915 -0.11431844669020293 0.12058298892315995 0.21849270470789051 0.21142351274273136 -0.1342103640094244
leaf_weight=2015.6727062985301 2949.12785628438 6978.4669290930033 968.58430467545986 1746.2063169777393 403.73348762094975 130.00094212591648 218.55314379930496 3294.7171517759562 170.96651659160852 3385.3304096907377 396.16085206717253 1229.9699579328299 1610.4279924631119 486.75925736874342 2251.89705991745 240.90304733812809 790.63424426317215 1144.5037433803082 1628.580807954073 1316.2786122560501 54.336779281497002 2379.4101872816682 651.63431498408318 692.08309904485941 3229.8448969945312 171.20047070086002 1183.6402392685413 95.514893099665642 195.92437669634819 68.385998487472534
leaf_count=14771 15444 39114 6278 10939 2066 643 1505 19159 969 18427 2429 5946 8707 2693 17893 1596 4233 5468 8025 7166 270 19198 3555 3878 20586 1089 6968 416 1005 382
internal_value=-0.000545644 0.0182752 -0.0425888 0.0369184 -0.0294839 -0.00268485 0.0139423 0.0372076 -0.00072551 -0.0207945 0.0750442 0.0878244 0.0114086 -0.0265505 -0.0781912 0.0130259 0.0429204 0.00510482 0.0409549 -0.0405266 -0.0781259 -0.0726665 -0.0558747 -0.00728977 -0.0773426 0.0665444 0.098627 -0.019562 0.000333467 0.121996
internal_weight=42079.5 29067.3 13012.1 20906.3 8160.99 5264.45 13044.9 7812.48 4517.76 5232.46 7861.39 1400.94 4655.07 882.92 2896.53 644.637 3248.78 1935.14 1847.13 3116.82 1800.54 8357.07 5977.66 1831.87 4145.79 863.284 1313.64 3044.64 915.945 264.31
internal_count=250818 170280 80538 116642 53638 32083 72406 44449 25290 27957 44236 6915 24567 5122 21555 3662 17312 9701 9530 18375 11209 55971 36773 11245 25528 4967 7611 15860 4942 1387
is_linear=0
shrinkage=0.1


Tree=14
num_leaves=31
num_cat=0
split_feature=2 3 0 1 8 6 2 8 0 3 10 8 9 5 0 2 8 9 1 7 5 8 7 1 8 1 0 8 1 0
split_gain=2813.46 2173.72 1511.43 1129.77 1193.01 1119.94 1098.5 1061.14 1848.87 1146.72 1642.49 1040.59 1159.61 1258.28 842.685 815.33 1975.17 763.413 743.692 701.892 673.321 603.532 876.516 584.917 564.611 515.068 560.526 507.211 505.731 497.795
threshold=3.5000000000000004 1.5000000000000002 1025.5000000000002 -3.6316984212469801 0.05836149266253831 0.6907714527615918 5.5000000000000009 0.031170937109793701 561.50000000000011 1.0000000180025095e-35 0.0095695970695970512 0.0093175884226288017 0.43939078021271216 71.500000000000014 2317.0000000000005 8.5000000000000018 0.059873207600480309 0.53188959487408016 -51.397166666666642 0.017964716006884655 103.50000000000001 0.10012299406971552 0.035043859649122808 41.062954545454566 0.018560160016762153 57.530048076923087 354.50000000000006 0.013620235957298152 27.525007836198217 2665.5000000000005
decision_type=2 2 2 2 2 2 2 2 2 2 2 2 2 2 2 2 2 2 2 2 2 2 2 2 2 2 2 2 2 2
left_child=5 2 6 4 -4 7 24 14 18 19 -11 23 21 15 -1 16 -14 20 -9 -10 -16 27 -23 -5 -2 26 -26 -13 29 -12
right_child=1 -3 3 11 -6 -7 -8 8 9 10 28 12 13 -15 17 -17 -18 -19 -20 -21 -22 22 -24 -25 25 -27 -28 -29 -30 -31
leaf_value=-0.065437953058457385 -0.1418728271547724 -0.11910831161232881 -0.14016249474883916 -0.09110053395355848 0.12773898586849794 -0.11225022256089541 0.099515073504341647 -0.11985262602186174 -0.031244043686670997 0.099572312562863433 0.15978990911072879 0.005129842754803003 0.074220568535525569 -0.045435353371968738 0.10996033771364935 0.074890645976986692 -0.11012707362910903 -0.12907354377382127 0.077276451383209765 -0.11426112536993654 -0.15376452751070591 -0.125215470746427 0.12937094497881624 0.11387605557995349 -0.12692367973122382 -0.14186348400432186 0.088974904566717611 0.097014001304440489 -0.096708859476037135 -0.1933775311500345
leaf_weight=6122.2644084990025 245.054552257061 1012.7799320295453 827.5035502165556 1095.2154708951712 208.0070673674345 1482.2545320764184 4316.8607286512852 205.12332003563643 3141.8239190205932 1366.1733522191644 163.43639887869358 721.83993940800428 1341.0284593850374 2916.6817285865545 729.901631757617 2676.573341101408 1025.7819818332791 234.41631898283958 2855.9485279321671 1506.9141345322132 111.61383593082428 353.08734978735447 219.1842976808548 159.48773626238108 142.57689912617207 155.29877692461014 768.03164269030094 3581.860479131341 903.09710605442524 52.805673196911812
leaf_count=42663 1306 9753 4886 7749 1065 11614 28139 1529 18632 7195 787 4890 6553 17548 3273 14758 5560 1496 14210 10184 552 2276 1310 961 862 805 3808 20783 5446 225
internal_value=-0.000555916 0.0239451 0.030926 0.0144653 -0.0863481 -0.0288096 0.0751683 -0.0216989 -0.000944785 -0.0288391 0.0259905 0.0218739 0.0303702 0.0068461 -0.0510944 0.0370814 -0.00567619 0.0305233 0.0640668 -0.0581545 0.0749814 0.0687735 -0.027707 -0.0650456 -0.00500293 0.0264638 0.055171 0.0816027 -0.0638175 0.0735475
internal_weight=40642.6 21766.9 20754.1 15126.3 1035.51 18875.8 5627.82 17393.5 10195.3 7134.25 2485.51 14090.7 12836 7960.07 7198.2 5043.38 2366.81 1075.93 3061.07 4648.74 841.515 4875.97 572.272 1254.7 1310.96 1065.91 910.609 4303.7 1119.34 216.242
internal_count=250818 133012 123259 88339 5951 117806 34920 106192 58208 42469 13653 82388 73678 44419 47984 26871 12113 5321 15739 28816 3825 29259 3586 8710 6781 5475 4670 25673 6458 1012
is_linear=0
shrinkage=0.1


Tree=15
num_leaves=31
num_cat=0
split_feature=9 8 1 9 8 3 2 8 5 2 3 0 5 7 1 7 1 7 5 10 5 9 0 0 10 0 1 1 0 10
split_gain=2650.57 1926.27 1693.86 1400.11 940.758 909.325 1377.24 872.073 805.446 1065.39 1196.34 821.339 758.859 722.823 656.757 648.858 945.418 612.478 586.156 613.344 580.706 891.542 612.771 553.938 816.336 596.727 553.607 559.923 535.562 518.787
threshold=0.53928493222545482 0.017137704495684605 32.137192298406596 0.43939078021271216 0.082279795152563215 1.0000000180025095e-35 3.5000000000000004 0.10374330758806587 74.500000000000014 5.5000000000000009 1.0000000180025095e-35 885.50000000000011 51.500000000000007 0.032627208856717008 -11.278045454545433 0.0070672260513434506 5.2813050964187349 0.0049262279169093011 80.500000000000014 0.013029454205924751 108.50000000000001 0.3929064794688415 447.50000000000006 498.50000000000006 0.0081634013061442027 452.50000000000006 26.334694510929442 20.641021314153608 1575.5000000000002 0.0042284999106025007
decision_type=2 2 2 2 2 2 2 2 2 2 2 2 2 2 2 2 2 2 2 2 2 2 2 2 2 2 2 2 2 2
left_child=1 5 4 7 14 6 -1 29 9 10 15 -10 -12 -9 -2 16 -5 -18 19 -7 22 28 -8 24 25 -4 27 -13 -22 -3
right_child=2 3 23 8 -6 18 20 13 11 -11 12 26 -14 -15 -16 -17 17 -19 -20 -21 21 -23 -24 -25 -26 -27 -28 -29 -30 -31
leaf_value=-0.06919591375082923 -0.11774405867342382 0.10673167996768021 -0.12168800042362959 -0.11696603101938692 0.056997786773077756 0.084803709142774408 -0.10294960599901859 -0.12811930604263369 0.044992646252157688 0.077142848953152779 -0.13067769906678922 -0.034998977268480891 0.10235085247574807 0.090235884679668907 -0.0060086412073410787 -0.068985996192855073 0.025471783339269683 0.20476182836322088 -0.099880331932364771 -0.1248207096513881 -0.074061454707022592 -0.082979193435900711 0.099052701058967546 -0.080930506798318577 0.14102505380615468 0.20553002585594515 -0.075484775972417317 0.13598634381558092 0.13811700678049546 0.050741214560672633
leaf_weight=1832.7046687379479 674.87909749895334 3333.1603991687298 383.02764235436916 362.14562013745308 2041.5836611315608 400.32698854804039 166.44642768800259 390.90779022872448 1324.2279568314552 3148.0872550457716 156.53392772376537 626.62307188659906 1303.1226826012135 247.64277176558971 2385.3279251605272 1915.461387693882 738.56870524585247 256.78104001283646 2009.5843144059181 214.29605688154697 162.71684995293617 732.2255993783474 1535.762089073658 6280.5788129717112 290.95424358546734 65.221419036388397 2243.959317356348 275.81869807839394 442.39450757205486 3286.6028293892741
leaf_count=14771 4632 21849 2203 2963 11171 2066 860 2773 6923 19863 969 3243 6576 1594 12904 12309 3779 1251 17893 1596 868 3754 9372 47967 1325 336 13135 1395 2458 18020
internal_value=-0.000553888 0.0168289 -0.039425 0.0333112 0.00442397 -0.0262865 -0.000726198 0.0681678 0.0128276 0.0320613 0.0020735 -0.0210771 0.0773608 -0.0434368 -0.0306501 -0.0315027 0.0213871 0.0717252 -0.0737432 0.0117155 0.0405579 -0.00875496 0.0793004 -0.0712933 0.0105883 -0.0740769 -0.0488839 0.0172603 0.0810614 0.0789333
internal_weight=39227.7 27106.1 12121.6 19609.6 5101.79 7496.46 4872.25 7258.31 12351.3 7880.7 4732.61 4470.63 1459.66 638.551 3060.21 3272.96 1357.5 995.35 2624.21 614.623 3039.55 1337.34 1702.21 7019.78 739.203 448.249 3146.4 902.442 605.111 6619.76
internal_count=250818 170280 80538 116642 28707 53638 32083 44236 72406 47710 27847 24696 7545 4367 17536 20302 7993 5030 21555 3662 17312 7080 10232 51831 3864 2539 17773 4638 3326 39869
is_linear=0
shrinkage=0.1


Tree=16
num_leaves=31
num_cat=0
split_feature=9 8 1 2 1 7 0 3 2 1 0 0 8 8 2 1 7 8 2 2 1 0 6 5 7 0 0 0 7 1
split_gain=2223.16 1620.34 1459.3 1201.29 1382.09 912.845 983.116 792.951 1173.94 734.018 778.262 747.93 763.223 679.224 646.015 638.566 548.084 551.766 762.411 556.115 590.632 550.501 528.72 524.559 544.279 519.983 1335.86 617.224 604.091 581.987
threshold=0.53928493222545482 0.017137704495684605 28.221546863184972 3.5000000000000004 44.462380095010168 0.022257607926397704 617.50000000000011 1.0000000180025095e-35 3.5000000000000004 -44.756466186252744 491.00000000000006 1657.5000000000002 0.080573768394113857 0.067335791170871559 6.5000000000000009 65.889891336548246 0.047019344650611854 0.071456473214285707 9.5000000000000018 1.5000000000000002 58.008182795698936 1366.5000000000002 0.47905118255728019 80.500000000000014 0.016326802612288405 1073.5000000000002 1425.5000000000002 304.50000000000006 0.088020086083213711 20.641021314153608
decision_type=2 2 2 2 2 2 2 2 2 2 2 2 2 2 2 2 2 2 2 2 2 2 2 2 2 2 2 2 2 2
left_child=1 7 14 5 25 9 22 8 -1 -3 -11 -12 15 -6 -2 -13 17 -4 19 20 21 -19 -7 24 -9 27 28 -5 -27 -28
right_child=2 3 16 4 13 6 -8 23 -10 10 11 12 -14 -15 -16 -17 -18 18 -20 -21 -22 -23 -24 -25 -26 26 29 -29 -30 -31
leaf_value=-0.065571996452715164 -0.018108247091697151 -0.09749134475169291 -0.073816665791033229 -0.12297078323790236 0.030496940210593893 -0.054509345095303398 -0.11471073393759804 0.076850748469579955 0.038050842976997512 0.10216316132131105 -0.021165082071053231 0.092854257377029126 -0.095108937033216837 -0.080397021068291233 0.063115566483182103 -0.1477478409519101 -0.10945341759453907 0.16043337480971834 0.11795940687287639 -0.086398227516096493 -0.10138205844497279 -0.04233002123154847 0.11806902638681055 -0.096732263178336525 -0.12586874679209273 -0.10579861867078055 0.010683115253297272 0.11756675799164303 0.088676269004079322 0.09721985973152926
leaf_weight=1745.2272228002548 2945.4635656550527 489.04888479411602 3237.0174863040447 111.0598288923502 1356.6115011870861 344.27338202297688 1166.722531363368 405.08275476098061 2926.7279253154993 1199.7293391376734 2868.45619238168 1836.7800199091434 291.29156965017319 931.63070908933878 1466.8632501959801 117.35587920248508 1938.8523953035474 345.77593170106411 389.67161878943443 996.11408131569624 255.34247105568647 218.51980313658714 366.51117432117462 1874.5085077136755 196.78220089524984 657.05271428823471 1010.0795302838087 2704.1030925735831 211.02488827705383 3370.2975930720568
leaf_count=14771 15860 4155 21949 746 8046 1913 7909 2166 17312 6497 15668 9531 1864 6172 8707 612 19198 1926 2131 7304 1877 1586 2063 17893 1496 3274 5425 20192 1035 21540
internal_value=-0.000552376 0.0156873 -0.0366024 0.030934 0.0539397 0.00349765 -0.0582305 -0.0249061 -0.000657876 0.0205344 0.0296766 0.012671 0.0558955 -0.0146522 0.00889434 0.0784049 -0.0637991 -0.0475349 -0.0089598 -0.0361974 0.0248121 0.0819146 0.0344795 -0.070653 0.0105708 0.0734042 0.0548063 0.108077 -0.0585228 0.0772652
internal_weight=37974 26180.4 11793.6 19032 10351.9 8680.17 1877.51 7148.33 4671.96 6802.66 6313.61 5113.88 2245.43 2288.24 4412.33 1954.14 7381.29 5442.44 2205.42 1815.75 819.638 564.296 710.785 2476.37 601.865 8063.62 5248.45 2815.16 868.078 4380.38
internal_count=250818 170280 80538 116642 66430 50212 11885 53638 32083 38327 34172 27675 12007 14218 24567 10143 55971 36773 14824 12693 5389 3512 3976 21555 3662 52212 31274 20938 4309 26965
is_linear=0
shrinkage=0.1


Tree=17
num_leaves=31
num_cat=0
split_feature=9 8 1 8 7 5 0 9 10 10 1 6 0 1 5 1 1 0 8 0 7 0 0 1 8 0 2 0 5 2
split_gain=1963.67 1592.86 1422.44 1780.72 1617.02 1021.17 965.229 864.454 804.448 1117.23 760.171 704.838 781.578 701.021 710.714 688.194 676.97 614.697 613.709 598.737 590.879 522.546 896.413 762.015 974.919 555.401 479.683 476.136 738.605 457.871
threshold=0.43939078021271216 0.014587818473181352 28.74550681759715 0.027121988368872852 0.025115115325581854 70.500000000000014 740.50000000000011 0.53928493222545482 0.0097800095648015017 0.0088692232055063019 -63.417328869047573 0.31660671462829731 2073.0000000000005 -31.592499999999955 78.500000000000014 60.898907462511687 51.080146548338682 1391.0000000000002 0.011430250426420952 2041.5000000000002 0.0064309346567411009 1046.5000000000002 1419.5000000000002 19.04580299352752 0.047450114072006458 2695.0000000000005 1.5000000000000002 447.50000000000006 105.50000000000001 2.5000000000000004
decision_type=2 2 2 2 2 2 2 2 2 2 2 2 2 2 2 2 2 2 2 2 2 2 2 2 2 2 2 2 2 2
left_child=1 8 3 13 5 7 -7 17 9 27 -5 12 -8 -2 18 -14 21 -4 -15 -20 -18 -3 29 24 -24 -26 -19 -1 -29 -23
right_child=2 16 4 10 -6 6 11 -9 -10 -11 -12 -13 15 14 -16 -17 20 26 19 -21 -22 22 23 -25 25 -27 -28 28 -30 -31
leaf_value=-0.12262070048169348 -0.10901643611743195 0.11788986006082432 -0.004418362954767086 -0.10466988080085993 -0.09277594755449825 0.060017568737405116 -0.078789311548401367 -0.023674002527729221 -0.083440749383099838 0.75138753617771414 0.050304805479499115 -0.097402128734312227 0.087887840281908491 0.1871206617942808 -0.071134359605515354 -0.11145407309256095 -0.11887692230648511 -0.00075967135520722524 -0.025935244312886348 0.12012892497964769 0.052951701970288173 -0.136699641819648 0.14533702499208953 0.094016095582955483 -0.21582374436206697 0.12176861351473107 0.12223845832524308 0.10481084798543681 -0.033985415489684603 0.019751903340078383
leaf_weight=229.94601934403181 1063.4964858070016 1889.3308465331793 1128.6186151057482 332.21995081752539 3664.6509061381221 725.78876093775034 1088.0383303388953 3155.9694002866745 1291.1295262500644 20.65211383998394 6694.0481221973896 2707.0850815623999 779.66629063338041 204.62793453037739 1353.9523652344942 222.64153731614351 359.323127143085 424.75577992200851 1371.5042404085398 352.83736139535904 451.71359520405531 309.0443669706583 178.11183151602745 3138.4155765622854 245.66428032517433 60.792201638221741 1250.6751917526126 727.45227586477995 810.66582830250263 473.91790769994259
leaf_count=1684 9609 13916 7175 2058 32175 3871 8044 21492 12200 179 39341 18552 4126 1102 9876 1614 2677 2324 8298 1923 2693 1910 951 21080 1000 422 7444 5089 5644 2349
internal_value=-0.000538837 0.0367817 -0.0148731 0.0118551 -0.03494 -0.0164828 -0.0474601 0.0122243 -0.023286 0.0201349 0.0429772 -0.0637201 -0.0201005 -0.0384559 -0.0155979 0.0436082 0.0628148 0.0526279 0.0233834 0.00395262 -0.0231756 0.0738931 0.0550267 0.0759954 -0.0407195 -0.148855 0.0910559 0.0115934 0.0316582 -0.0420014
internal_weight=36706.7 10186.2 26520.6 11372.7 15147.9 11483.2 5523.22 5960.02 3079.85 1788.72 7026.27 4797.43 2090.35 4346.42 3282.92 1002.31 7106.31 2804.05 1928.97 1724.34 811.037 6295.28 4405.95 3622.98 484.568 306.456 1675.43 1768.06 1538.12 782.962
internal_count=250818 71794 179024 72207 106817 74642 36207 38435 24796 12596 41399 32336 13784 30808 21199 5740 46998 16943 11323 10221 5370 41628 27712 23453 2373 1422 9768 12417 10733 4259
is_linear=0
shrinkage=0.1


Tree=18
num_leaves=31
num_cat=0
split_feature=2 3 0 1 6 2 5 1 0 9 8 2 8 0 9 8 8 1 2 2 0 5 7 2 5 6 1 8 1 0
split_gain=1715.91 1459.16 982.183 1135.84 847.602 842.8 836.709 746.805 1312.48 737.582 704.896 699.79 1071.44 693.493 745.933 685.745 671.873 638.122 556.938 544.168 543.179 837.307 606.467 522.247 516.537 498.917 492.754 487.069 716.014 486.743
threshold=3.5000000000000004 1.5000000000000002 1079.5000000000002 -17.80097560975609 0.6907714527615918 5.5000000000000009 54.500000000000007 -36.883278409090885 574.50000000000011 0.55439477730025721 0.0093175884226288017 8.5000000000000018 0.059873207600480309 1494.5000000000002 0.4755371793838406 0.051934908579880507 0.028132598694624252 16.253105650154826 14.500000000000002 1.5000000000000002 946.50000000000011 63.500000000000007 0.029520697167755953 1.5000000000000002 76.500000000000014 0.55325080325080334 41.062954545454566 0.037073206018518511 8.5971212121212393 938.50000000000011
decision_type=2 2 2 2 2 2 2 2 2 2 2 2 2 2 2 2 2 2 2 2 2 2 2 2 2 2 2 2 2 2
left_child=4 2 5 -4 7 25 11 19 16 10 26 12 -5 20 15 17 24 -15 -11 -1 21 -10 27 -16 -9 -2 -8 28 -23 -30
right_child=1 -3 3 6 -6 -7 9 8 13 18 -12 -13 -14 14 23 -17 -18 -19 -20 -21 -22 22 -24 -25 -26 -27 -28 -29 29 -31
leaf_value=0.13200692834691782 -0.037918600570305876 -0.11545046359822529 -0.13344196780117945 0.10731732151497707 -0.10615623258699672 0.087048704452283188 -0.08958187326390446 -0.10937059283307966 -0.083460798927916385 -0.095821249391292523 0.025198197864398593 0.10068623578093212 -0.1229770291352814 0.68657109729544774 -0.069542257939799554 -0.056786859519445468 0.062922674824419753 0.075427953135151576 0.086173310713483359 -0.11335593465687206 -0.079122574279447674 0.28481657957280476 0.24532702158209463 0.01887867668301807 0.039382387933550617 0.12888385923016718 0.10877030789247927 0.06151818039137083 -0.11323330603577869 0.30357533626708927
leaf_weight=98.435350805521011 1010.5996559262276 761.03215233981609 519.26020845025778 394.3512571901083 1162.1195109710097 3769.8104647547007 906.45508706569672 465.01729798316956 1144.0578774958849 1068.1130624264479 7561.0745528265834 1869.2861471995711 414.23044491559267 17.296746708452702 1636.1480075716972 467.6626658141613 2878.2703794911504 1396.4289907068014 199.56364262849092 1105.7741987258196 3292.9654541686177 55.826116219162941 119.93237869441509 1128.8579192236066 468.74681267887354 217.99906238913536 145.3228846937418 820.29900399595499 523.8758684694767 29.60036027431488
leaf_count=572 5853 9753 3057 1996 11614 29665 7804 3467 8677 6359 49421 12965 2727 139 10796 3103 15390 8273 1231 10878 24933 340 717 7341 3171 1220 961 4089 4172 134
internal_value=-0.000534644 0.0201916 0.0259024 0.0114913 -0.0237584 0.0636069 0.017484 -0.0176395 -0.0113321 0.00404629 0.0145283 0.067065 -0.0106608 -0.0293805 -0.000392121 0.0481815 0.0390106 0.0829052 -0.0671708 -0.0932993 -0.0518796 -0.0185745 0.0293326 -0.033443 -0.034697 -0.00832165 -0.0621758 0.0112124 -0.0565139 -0.090942
internal_weight=35648.4 18837.1 18076.1 13077.7 16811.3 4998.41 12558.4 15649.2 14445 9880.53 8612.85 2677.87 808.582 10633 4646.39 1881.39 3812.03 1413.73 1267.68 1204.21 5986.56 2693.59 1549.53 2765.01 933.764 1228.6 1051.78 1429.6 609.302 553.476
internal_count=250818 133012 123259 86521 117806 36738 83464 106192 94742 65776 58186 17688 4723 72714 29652 11515 22028 8412 7590 11450 43062 18129 9452 18137 6638 7073 8765 8735 4646 4306
is_linear=0
shrinkage=0.1


Tree=19
num_leaves=31
num_cat=0
split_feature=9 5 2 10 1 7 1 8 2 9 1 0 8 2 8 8 6 1 0 8 0 0 2 7 0 7 8 0 8 9
split_gain=1508.61 1247.13 1099.1 1325.92 1128.24 1069.41 1009.57 888.099 719.749 963.316 716.151 709.728 673.182 615.156 602.731 816.771 676.763 589.073 580.577 577.642 544.716 499.393 495.329 487.897 617.769 550 486.851 486.554 516.426 535.158
threshold=0.53928493222545482 99.500000000000014 5.5000000000000009 0.011090610906109051 -31.592499999999955 0.015286649010749252 32.137192298406596 0.040556666451654504 9.5000000000000018 0.44383412360667396 58.532862021857966 574.50000000000011 0.082279795152563215 2.5000000000000004 0.057525259022493107 0.014415280249014001 0.37135785007072136 44.245482548360002 2275.5000000000005 0.018560160016762153 3050.5000000000005 110.00000000000001 6.5000000000000009 0.0032685323648792507 110.00000000000001 0.0066890380313198508 0.15041903501649073 553.50000000000011 0.021391983736272453 0.44292966020265551
decision_type=2 2 2 2 2 2 2 2 2 2 2 2 2 2 2 2 2 2 2 2 2 2 2 2 2 2 2 2 2 2
left_child=1 2 4 26 -1 10 12 -5 9 14 18 -7 20 -13 15 16 22 -15 19 23 -2 -21 -3 24 -6 -25 -4 -23 -29 -30
right_child=6 8 3 7 5 11 -8 -9 -10 -11 -12 13 -14 17 -16 -17 -18 -19 -20 21 -22 27 -24 25 -26 -27 -28 28 29 -31
leaf_value=-0.10278295232110937 -0.041772679779674145 -0.080205259803833362 0.08552942608225618 -0.063564482488232585 0.33417882089642015 0.051801289951779309 -0.059166199881478913 0.090204216286821876 -0.097002290246333431 -0.06932665066976032 -0.064035114471548915 -0.10062055375187751 0.048380348425098071 0.048936265494994073 -0.080109932429645814 0.089944595750291081 0.26735267767366455 -0.13006523746430665 0.11697108877945039 -0.46835647402716046 0.11340688157957389 0.11974653770211402 0.048003790789538252 0.12108253370380125 -0.12089715941556017 -0.15011155744684337 -0.04801697085604037 0.20959072627229802 0.15793865989530115 0.0042230222381469014
leaf_weight=881.95693842321634 2599.0772614479065 827.87772183865309 5527.0413178876042 1291.5662886351347 31.656464293599129 772.25790645927191 5958.9016529209912 529.61794083565474 1133.266077041626 1746.2432997077703 589.49667885154486 1411.0414097309113 1917.811001367867 716.69183877110481 493.47701613605022 1522.4650914818048 79.305525444447994 247.27893170714378 1096.9707232490182 18.135895192623138 247.76837746798992 917.41525413095951 473.79800467193127 291.22464515268803 517.11523760855198 100.62110815197229 287.16362907737494 156.69641971588135 255.7270282804966 1980.913652330637
leaf_count=9092 16180 6800 44115 10569 151 4661 51831 3754 9870 11395 3865 10692 11171 3985 3618 9816 468 1789 5609 108 1356 5326 3062 1774 4351 757 1860 703 1373 10717
internal_value=-0.000567634 0.0134159 0.0270502 0.055611 0.00521053 0.0156734 -0.0317295 -0.0188471 -0.0248611 -0.00896522 0.0405886 -0.0314768 0.00258415 -0.0585555 0.0220646 0.0394304 -0.0162591 0.00301859 0.0520813 0.035409 -0.028267 0.0549613 -0.0335383 -0.0337874 -0.0946456 0.0514433 0.0789336 0.057828 0.0340933 0.0217981
internal_weight=34620.6 23897 17620.6 7635.39 9985.2 9103.24 10723.6 1821.18 6276.43 5143.17 5955.97 3147.27 4764.66 2375.01 3396.92 2903.45 1380.98 963.971 5366.48 4269.51 2846.85 3328.89 1301.68 940.617 548.772 391.846 5814.2 3310.75 2393.34 2236.64
internal_count=250818 170280 125251 60298 64953 55861 80538 14323 45029 35159 34734 21127 28707 16466 23764 20146 10330 5774 30869 25260 17536 18227 9862 7033 4502 2531 45975 18119 12793 12090
is_linear=0
shrinkage=0.1


Tree=20
num_leaves=31
num_cat=0
split_feature=9 8 7 5 2 0 7 5 1 1 6 2 0 1 0 8 8 2 10 7 0 10 7 0 7 3 2 9 9 1
split_gain=1309.44 1132.16 1072.51 872.109 769.185 1104.28 1067.73 888.538 809.411 1001.88 703.507 698.031 679.266 659.62 899.179 606.523 596.81 627.402 546.342 513.296 477.786 475.174 699.55 720.188 482.777 441.939 658.052 601.003 566.224 439.831
threshold=0.43939078021271216 0.014587818473181352 0.1478995774297788 91.500000000000014 6.5000000000000009 1025.5000000000002 0.016713221601489702 71.500000000000014 -31.592499999999955 26.334694510929442 0.35328358208955224 1.5000000000000002 498.50000000000006 59.653498401005102 2642.0000000000005 0.10374330758806587 0.087637775680559957 9.5000000000000018 0.0097800095648015017 0.032627208856717008 1814.5000000000002 0.0042284999106025007 0.023575729504400105 834.50000000000011 0.14376531555055638 1.0000000180025095e-35 1.5000000000000002 0.59733548840788353 0.46847743560710792 36.463511053510381
decision_type=2 2 2 2 2 2 2 2 2 2 2 2 2 2 2 2 2 2 2 2 2 2 2 2 2 2 2 2 2 2
left_child=1 18 3 4 8 -6 7 -7 11 -10 -9 -2 29 14 25 21 -8 -18 -1 -17 -20 -3 -23 -24 -25 -14 28 -28 -27 -11
right_child=2 15 -4 -5 5 6 16 10 9 12 -12 -13 13 -15 -16 19 17 -19 20 -21 -22 22 23 24 -26 26 27 -29 -30 -31
leaf_value=0.015666054448818238 0.22443750827487824 0.095462632017467838 -0.098838838740916507 -0.057325078029866042 0.10571865787050501 0.085065457783011542 -0.10079660442901324 0.023598003774023102 0.032871786089768124 -0.076447140463062072 -0.16382651113915603 -0.11169846478952282 -0.063273125334408931 -0.11608682460726437 0.070185274483864121 -0.12495569018634622 -0.14141946353834131 0.070907385080023935 -0.11373950780414191 0.079684665742991642 0.030170291019004994 0.071951250753667692 0.13167378518620632 -0.10059315194488823 0.13034440007462444 0.12155181316654191 0.11174987139477173 -0.12442110618928935 -0.079974780234641246 0.066011049056747276
leaf_weight=1672.7847865968943 65.470183074474335 2686.3834591209888 1361.6833781898022 3050.7875745035708 1456.9438484981656 1842.4872493296862 1086.7052986361086 644.85536051541567 4436.7960277348757 269.18006435036659 290.48450361192226 1095.9552491307259 3378.6148741692305 947.0293897986412 832.52358561754227 325.34406863152981 187.44752325862646 540.31083451956511 832.11267005652189 196.65993638336658 319.20095246657729 2047.6183438897133 221.0832617431879 720.64045755565166 103.5271096304059 162.96146649122238 613.60527721047401 130.70354859530926 965.08958479017019 1112.1775641813874
leaf_count=12596 303 22851 17141 22192 13022 11864 7641 4455 23516 1616 1816 11782 27324 7808 4863 2773 1111 4246 9657 1594 2543 12894 2075 4176 635 1143 2916 1035 6877 6353
internal_value=-0.000538956 0.0317906 -0.0125944 -0.00751277 6.3089e-05 0.0298639 0.00579827 0.0447689 -0.0128042 -0.00557765 -0.0346096 -0.0927503 -0.0258576 -0.0384536 -0.0263682 0.0553713 -0.0538632 0.0162187 -0.0208236 -0.0478594 -0.0738406 0.0646955 0.0379719 -0.0285926 -0.0715841 -0.0416765 -0.00270596 0.0702773 -0.0508617 0.0382507
internal_weight=33597.2 9125.36 24471.8 23110.1 20059.3 6049.23 4592.29 2777.83 14010.1 12848.7 935.34 1161.43 8411.89 7030.53 6083.5 6301.26 1814.46 727.758 2824.1 522.004 1151.31 5779.25 3092.87 1045.25 824.168 5250.97 1872.36 744.309 1128.05 1381.36
internal_count=250818 71794 179024 161883 139691 44155 31133 18135 95536 83451 6271 12085 59935 51966 44158 46998 12998 5357 24796 4367 12200 42631 19780 6886 4811 39295 11971 3951 8020 7969
is_linear=0
shrinkage=0.1


Tree=21
num_leaves=31
num_cat=0
split_feature=3 2 6 0 1 5 9 3 10 0 2 0 0 2 8 5 8 2 2 8 8 8 0 2 5 6 10 0 1 1
split_gain=1228.42 1337.75 728.654 701.991 863.818 676.378 723.531 644.917 1101.69 707.284 1275.35 896.387 798.374 900.587 742.491 699.203 653.422 632.794 586.266 753.661 537.576 488.929 452.084 443.699 826.741 603.321 916.355 504.951 457.721 526.993
threshold=1.5000000000000002 3.5000000000000004 0.6907714527615918 1079.5000000000002 -17.80097560975609 55.500000000000007 0.54585586638993655 1.0000000180025095e-35 0.015209345362017053 891.50000000000011 1.5000000000000002 771.50000000000011 2695.0000000000005 1.5000000000000002 0.090636112787449818 63.500000000000007 0.056517126845470604 6.5000000000000009 9.5000000000000018 0.059873207600480309 0.021606260399229551 0.0093175884226288017 803.00000000000011 7.5000000000000009 71.500000000000014 0.38972044904248299 0.025263269864907952 2207.0000000000005 34.326658749795875 25.604326923076957
decision_type=2 2 2 2 2 2 2 2 2 2 2 2 2 2 2 2 2 2 2 2 2 2 2 2 2 2 2 2 2 2
left_child=1 2 7 17 -5 18 21 9 16 10 14 -12 -11 -14 15 -1 22 -3 19 -6 -13 -7 -9 25 -25 -23 27 -27 29 -29
right_child=-2 3 -4 4 5 6 -8 8 -10 12 11 20 13 -15 -16 -17 -18 -19 -20 -21 -22 23 -24 24 -26 26 -28 28 -30 -31
leaf_value=-0.07703981813523493 -0.11443449023625665 0.013691471277445386 -0.102363354535735 -0.12366610621439794 0.087882841800980577 -0.053702466923325115 -0.06788923256090594 -0.12837832537173391 -0.061311700039306187 -0.071997017837366312 -0.081161699771147802 0.26136650477624662 -0.11807718994584336 0.1845786965529265 0.12059568029658629 0.039927512765107226 0.12257019339904984 0.090064859248661533 0.09602200415633827 -0.092003412842666776 -0.036572881675622108 0.08196461010218202 0.036238044866606339 0.071044623219814515 -0.03156814195735589 0.011586673295505194 0.18861362948537957 -0.17689531706634529 -0.06035016223317366 -0.6377200715464153
leaf_weight=688.51431858539581 920.0784143358469 1929.0248134508729 973.59230217337608 464.71747164800763 460.54449541866779 941.93333153054118 1258.6916072666645 183.74471791833639 1174.4898310117424 3823.1695067510009 2128.310636729002 129.01525473594666 155.80863063037395 266.447584182024 781.5330975651741 1982.9274926707149 930.03508251160383 2479.0995861068368 1660.427285708487 471.19945967942476 114.13439965993166 2083.8579565286636 1812.232391320169 1129.8388782292604 2573.8825294189155 486.94836084544659 188.08532622456551 98.385123118758202 235.95989166200161 33.186954781413078
leaf_count=4690 12744 12994 11569 3057 2417 8717 8272 1401 8470 31633 20532 689 1345 1292 3849 11914 5799 23744 13004 3373 758 12255 10874 8499 19855 3136 1097 426 2162 251
internal_value=-0.000531118 0.00278117 -0.0186793 0.0224829 0.0100253 0.0153707 0.00244637 -0.0129296 0.0205018 -0.0265431 -0.0039165 -0.0603811 -0.0575852 0.0729015 0.0348627 0.00978136 0.0533414 0.0566434 0.0603971 -0.00308883 0.121514 0.0138373 0.0210839 0.0231515 -0.000265601 0.0508927 -0.0112132 -0.0551984 -0.143683 -0.293131
internal_weight=32559.8 31639.7 15144 16495.8 12087.7 11622.9 9030.77 14170.4 4100.5 10069.9 5824.44 2371.46 4245.43 422.256 3452.97 2671.44 2926.01 4408.12 2592.17 931.744 243.15 7772.08 1995.98 6830.15 3703.72 3126.42 1042.57 854.48 367.532 131.572
